digraph Tree {
node [shape=box, fontname="helvetica"] ;
edge [fontname="helvetica"] ;
0 [label="x[3] <= 0.199\nentropy = 1.0\nsamples = 11875\nvalue = [5924, 5951]"] ;
1 [label="x[6] <= 0.826\nentropy = 0.901\nsamples = 6550\nvalue = [4473, 2077]"] ;
0 -> 1 [labeldistance=2.5, labelangle=45, headlabel="True"] ;
2 [label="x[6] <= 0.802\nentropy = 0.861\nsamples = 6209\nvalue = [4443, 1766]"] ;
1 -> 2 ;
3 [label="x[1] <= 0.302\nentropy = 0.979\nsamples = 3558\nvalue = [2084, 1474]"] ;
2 -> 3 ;
4 [label="x[5] <= -0.08\nentropy = 0.917\nsamples = 2482\nvalue = [1657, 825]"] ;
3 -> 4 ;
5 [label="x[3] <= -0.842\nentropy = 0.997\nsamples = 800\nvalue = [373, 427]"] ;
4 -> 5 ;
6 [label="x[6] <= -0.869\nentropy = 0.909\nsamples = 151\nvalue = [102, 49]"] ;
5 -> 6 ;
7 [label="x[4] <= -1.275\nentropy = 0.871\nsamples = 144\nvalue = [102, 42]"] ;
6 -> 7 ;
8 [label="x[2] <= -0.092\nentropy = 0.276\nsamples = 21\nvalue = [20, 1]"] ;
7 -> 8 ;
9 [label="x[0] <= -0.263\nentropy = 0.592\nsamples = 7\nvalue = [6, 1]"] ;
8 -> 9 ;
10 [label="entropy = 0.0\nsamples = 5\nvalue = [5, 0]"] ;
9 -> 10 ;
11 [label="x[0] <= 0.492\nentropy = 1.0\nsamples = 2\nvalue = [1, 1]"] ;
9 -> 11 ;
12 [label="entropy = 0.0\nsamples = 1\nvalue = [0, 1]"] ;
11 -> 12 ;
13 [label="entropy = 0.0\nsamples = 1\nvalue = [1, 0]"] ;
11 -> 13 ;
14 [label="entropy = 0.0\nsamples = 14\nvalue = [14, 0]"] ;
8 -> 14 ;
15 [label="x[9] <= -1.417\nentropy = 0.918\nsamples = 123\nvalue = [82, 41]"] ;
7 -> 15 ;
16 [label="entropy = 0.0\nsamples = 9\nvalue = [9, 0]"] ;
15 -> 16 ;
17 [label="x[5] <= -1.195\nentropy = 0.942\nsamples = 114\nvalue = [73, 41]"] ;
15 -> 17 ;
18 [label="x[8] <= -0.029\nentropy = 0.877\nsamples = 91\nvalue = [64, 27]"] ;
17 -> 18 ;
19 [label="x[3] <= -1.021\nentropy = 0.964\nsamples = 54\nvalue = [33, 21]"] ;
18 -> 19 ;
20 [label="x[3] <= -1.058\nentropy = 0.822\nsamples = 35\nvalue = [26, 9]"] ;
19 -> 20 ;
21 [label="x[3] <= -1.11\nentropy = 0.943\nsamples = 25\nvalue = [16, 9]"] ;
20 -> 21 ;
22 [label="x[4] <= 1.207\nentropy = 0.887\nsamples = 23\nvalue = [16, 7]"] ;
21 -> 22 ;
23 [label="x[2] <= -0.092\nentropy = 0.696\nsamples = 16\nvalue = [13, 3]"] ;
22 -> 23 ;
24 [label="x[9] <= -1.255\nentropy = 1.0\nsamples = 6\nvalue = [3, 3]"] ;
23 -> 24 ;
25 [label="entropy = 0.0\nsamples = 2\nvalue = [2, 0]"] ;
24 -> 25 ;
26 [label="x[3] <= -1.47\nentropy = 0.811\nsamples = 4\nvalue = [1, 3]"] ;
24 -> 26 ;
27 [label="x[4] <= -0.522\nentropy = 1.0\nsamples = 2\nvalue = [1, 1]"] ;
26 -> 27 ;
28 [label="entropy = 0.0\nsamples = 1\nvalue = [1, 0]"] ;
27 -> 28 ;
29 [label="entropy = 0.0\nsamples = 1\nvalue = [0, 1]"] ;
27 -> 29 ;
30 [label="entropy = 0.0\nsamples = 2\nvalue = [0, 2]"] ;
26 -> 30 ;
31 [label="entropy = 0.0\nsamples = 10\nvalue = [10, 0]"] ;
23 -> 31 ;
32 [label="x[9] <= -0.522\nentropy = 0.985\nsamples = 7\nvalue = [3, 4]"] ;
22 -> 32 ;
33 [label="entropy = 0.0\nsamples = 3\nvalue = [0, 3]"] ;
32 -> 33 ;
34 [label="x[0] <= -1.195\nentropy = 0.811\nsamples = 4\nvalue = [3, 1]"] ;
32 -> 34 ;
35 [label="entropy = 0.0\nsamples = 1\nvalue = [0, 1]"] ;
34 -> 35 ;
36 [label="entropy = 0.0\nsamples = 3\nvalue = [3, 0]"] ;
34 -> 36 ;
37 [label="entropy = 0.0\nsamples = 2\nvalue = [0, 2]"] ;
21 -> 37 ;
38 [label="entropy = 0.0\nsamples = 10\nvalue = [10, 0]"] ;
20 -> 38 ;
39 [label="x[4] <= -0.522\nentropy = 0.949\nsamples = 19\nvalue = [7, 12]"] ;
19 -> 39 ;
40 [label="entropy = 0.0\nsamples = 2\nvalue = [2, 0]"] ;
39 -> 40 ;
41 [label="x[9] <= -0.847\nentropy = 0.874\nsamples = 17\nvalue = [5, 12]"] ;
39 -> 41 ;
42 [label="x[2] <= -0.092\nentropy = 0.811\nsamples = 4\nvalue = [3, 1]"] ;
41 -> 42 ;
43 [label="entropy = 0.0\nsamples = 1\nvalue = [0, 1]"] ;
42 -> 43 ;
44 [label="entropy = 0.0\nsamples = 3\nvalue = [3, 0]"] ;
42 -> 44 ;
45 [label="x[4] <= 0.608\nentropy = 0.619\nsamples = 13\nvalue = [2, 11]"] ;
41 -> 45 ;
46 [label="entropy = 0.0\nsamples = 9\nvalue = [0, 9]"] ;
45 -> 46 ;
47 [label="x[2] <= -0.092\nentropy = 1.0\nsamples = 4\nvalue = [2, 2]"] ;
45 -> 47 ;
48 [label="entropy = 0.0\nsamples = 2\nvalue = [2, 0]"] ;
47 -> 48 ;
49 [label="entropy = 0.0\nsamples = 2\nvalue = [0, 2]"] ;
47 -> 49 ;
50 [label="x[0] <= 0.188\nentropy = 0.639\nsamples = 37\nvalue = [31, 6]"] ;
18 -> 50 ;
51 [label="x[4] <= -0.522\nentropy = 0.828\nsamples = 23\nvalue = [17, 6]"] ;
50 -> 51 ;
52 [label="entropy = 0.0\nsamples = 4\nvalue = [0, 4]"] ;
51 -> 52 ;
53 [label="x[9] <= -0.224\nentropy = 0.485\nsamples = 19\nvalue = [17, 2]"] ;
51 -> 53 ;
54 [label="x[1] <= -0.53\nentropy = 0.971\nsamples = 5\nvalue = [3, 2]"] ;
53 -> 54 ;
55 [label="entropy = 0.0\nsamples = 3\nvalue = [3, 0]"] ;
54 -> 55 ;
56 [label="entropy = 0.0\nsamples = 2\nvalue = [0, 2]"] ;
54 -> 56 ;
57 [label="entropy = 0.0\nsamples = 14\nvalue = [14, 0]"] ;
53 -> 57 ;
58 [label="entropy = 0.0\nsamples = 14\nvalue = [14, 0]"] ;
50 -> 58 ;
59 [label="x[5] <= -0.564\nentropy = 0.966\nsamples = 23\nvalue = [9, 14]"] ;
17 -> 59 ;
60 [label="entropy = 0.0\nsamples = 11\nvalue = [0, 11]"] ;
59 -> 60 ;
61 [label="x[5] <= -0.178\nentropy = 0.811\nsamples = 12\nvalue = [9, 3]"] ;
59 -> 61 ;
62 [label="x[3] <= -1.184\nentropy = 1.0\nsamples = 6\nvalue = [3, 3]"] ;
61 -> 62 ;
63 [label="entropy = 0.0\nsamples = 2\nvalue = [0, 2]"] ;
62 -> 63 ;
64 [label="x[9] <= 0.755\nentropy = 0.811\nsamples = 4\nvalue = [3, 1]"] ;
62 -> 64 ;
65 [label="entropy = 0.0\nsamples = 1\nvalue = [0, 1]"] ;
64 -> 65 ;
66 [label="entropy = 0.0\nsamples = 3\nvalue = [3, 0]"] ;
64 -> 66 ;
67 [label="entropy = 0.0\nsamples = 6\nvalue = [6, 0]"] ;
61 -> 67 ;
68 [label="entropy = 0.0\nsamples = 7\nvalue = [0, 7]"] ;
6 -> 68 ;
69 [label="x[8] <= 0.869\nentropy = 0.98\nsamples = 649\nvalue = [271, 378]"] ;
5 -> 69 ;
70 [label="x[2] <= 0.866\nentropy = 0.909\nsamples = 361\nvalue = [117, 244]"] ;
69 -> 70 ;
71 [label="x[0] <= 1.413\nentropy = 0.793\nsamples = 218\nvalue = [52, 166]"] ;
70 -> 71 ;
72 [label="x[5] <= -1.226\nentropy = 0.758\nsamples = 210\nvalue = [46, 164]"] ;
71 -> 72 ;
73 [label="x[9] <= -1.326\nentropy = 0.838\nsamples = 157\nvalue = [42, 115]"] ;
72 -> 73 ;
74 [label="x[0] <= 0.424\nentropy = 0.989\nsamples = 16\nvalue = [9, 7]"] ;
73 -> 74 ;
75 [label="x[6] <= -0.252\nentropy = 0.722\nsamples = 10\nvalue = [8, 2]"] ;
74 -> 75 ;
76 [label="entropy = 0.0\nsamples = 8\nvalue = [8, 0]"] ;
75 -> 76 ;
77 [label="entropy = 0.0\nsamples = 2\nvalue = [0, 2]"] ;
75 -> 77 ;
78 [label="x[3] <= -0.023\nentropy = 0.65\nsamples = 6\nvalue = [1, 5]"] ;
74 -> 78 ;
79 [label="entropy = 0.0\nsamples = 5\nvalue = [0, 5]"] ;
78 -> 79 ;
80 [label="entropy = 0.0\nsamples = 1\nvalue = [1, 0]"] ;
78 -> 80 ;
81 [label="x[9] <= -0.98\nentropy = 0.785\nsamples = 141\nvalue = [33, 108]"] ;
73 -> 81 ;
82 [label="x[0] <= -1.326\nentropy = 0.206\nsamples = 31\nvalue = [1, 30]"] ;
81 -> 82 ;
83 [label="entropy = 0.0\nsamples = 1\nvalue = [1, 0]"] ;
82 -> 83 ;
84 [label="entropy = 0.0\nsamples = 30\nvalue = [0, 30]"] ;
82 -> 84 ;
85 [label="x[3] <= 0.193\nentropy = 0.87\nsamples = 110\nvalue = [32, 78]"] ;
81 -> 85 ;
86 [label="x[3] <= -0.275\nentropy = 0.837\nsamples = 105\nvalue = [28, 77]"] ;
85 -> 86 ;
87 [label="x[3] <= -0.284\nentropy = 0.962\nsamples = 57\nvalue = [22, 35]"] ;
86 -> 87 ;
88 [label="x[9] <= -0.066\nentropy = 0.897\nsamples = 51\nvalue = [16, 35]"] ;
87 -> 88 ;
89 [label="x[4] <= -1.197\nentropy = 0.989\nsamples = 16\nvalue = [9, 7]"] ;
88 -> 89 ;
90 [label="entropy = 0.0\nsamples = 3\nvalue = [0, 3]"] ;
89 -> 90 ;
91 [label="x[0] <= 0.328\nentropy = 0.89\nsamples = 13\nvalue = [9, 4]"] ;
89 -> 91 ;
92 [label="x[4] <= -0.541\nentropy = 0.991\nsamples = 9\nvalue = [5, 4]"] ;
91 -> 92 ;
93 [label="entropy = 0.0\nsamples = 2\nvalue = [2, 0]"] ;
92 -> 93 ;
94 [label="x[4] <= 0.515\nentropy = 0.985\nsamples = 7\nvalue = [3, 4]"] ;
92 -> 94 ;
95 [label="x[0] <= -0.83\nentropy = 0.722\nsamples = 5\nvalue = [1, 4]"] ;
94 -> 95 ;
96 [label="entropy = 0.0\nsamples = 1\nvalue = [1, 0]"] ;
95 -> 96 ;
97 [label="entropy = 0.0\nsamples = 4\nvalue = [0, 4]"] ;
95 -> 97 ;
98 [label="entropy = 0.0\nsamples = 2\nvalue = [2, 0]"] ;
94 -> 98 ;
99 [label="entropy = 0.0\nsamples = 4\nvalue = [4, 0]"] ;
91 -> 99 ;
100 [label="x[0] <= -0.998\nentropy = 0.722\nsamples = 35\nvalue = [7, 28]"] ;
88 -> 100 ;
101 [label="entropy = 0.0\nsamples = 11\nvalue = [0, 11]"] ;
100 -> 101 ;
102 [label="x[0] <= 1.118\nentropy = 0.871\nsamples = 24\nvalue = [7, 17]"] ;
100 -> 102 ;
103 [label="x[9] <= 1.522\nentropy = 0.977\nsamples = 17\nvalue = [7, 10]"] ;
102 -> 103 ;
104 [label="x[4] <= -0.305\nentropy = 0.863\nsamples = 14\nvalue = [4, 10]"] ;
103 -> 104 ;
105 [label="x[0] <= 0.024\nentropy = 0.985\nsamples = 7\nvalue = [4, 3]"] ;
104 -> 105 ;
106 [label="entropy = 0.0\nsamples = 3\nvalue = [3, 0]"] ;
105 -> 106 ;
107 [label="x[3] <= -0.749\nentropy = 0.811\nsamples = 4\nvalue = [1, 3]"] ;
105 -> 107 ;
108 [label="entropy = 0.0\nsamples = 1\nvalue = [1, 0]"] ;
107 -> 108 ;
109 [label="entropy = 0.0\nsamples = 3\nvalue = [0, 3]"] ;
107 -> 109 ;
110 [label="entropy = 0.0\nsamples = 7\nvalue = [0, 7]"] ;
104 -> 110 ;
111 [label="entropy = 0.0\nsamples = 3\nvalue = [3, 0]"] ;
103 -> 111 ;
112 [label="entropy = 0.0\nsamples = 7\nvalue = [0, 7]"] ;
102 -> 112 ;
113 [label="entropy = 0.0\nsamples = 6\nvalue = [6, 0]"] ;
87 -> 113 ;
114 [label="x[0] <= -0.407\nentropy = 0.544\nsamples = 48\nvalue = [6, 42]"] ;
86 -> 114 ;
115 [label="entropy = 0.0\nsamples = 20\nvalue = [0, 20]"] ;
114 -> 115 ;
116 [label="x[0] <= -0.305\nentropy = 0.75\nsamples = 28\nvalue = [6, 22]"] ;
114 -> 116 ;
117 [label="entropy = 0.0\nsamples = 2\nvalue = [2, 0]"] ;
116 -> 117 ;
118 [label="x[4] <= 0.642\nentropy = 0.619\nsamples = 26\nvalue = [4, 22]"] ;
116 -> 118 ;
119 [label="x[9] <= -0.922\nentropy = 0.297\nsamples = 19\nvalue = [1, 18]"] ;
118 -> 119 ;
120 [label="entropy = 0.0\nsamples = 1\nvalue = [1, 0]"] ;
119 -> 120 ;
121 [label="entropy = 0.0\nsamples = 18\nvalue = [0, 18]"] ;
119 -> 121 ;
122 [label="x[4] <= 1.034\nentropy = 0.985\nsamples = 7\nvalue = [3, 4]"] ;
118 -> 122 ;
123 [label="x[9] <= -0.3\nentropy = 0.811\nsamples = 4\nvalue = [3, 1]"] ;
122 -> 123 ;
124 [label="entropy = 0.0\nsamples = 1\nvalue = [0, 1]"] ;
123 -> 124 ;
125 [label="entropy = 0.0\nsamples = 3\nvalue = [3, 0]"] ;
123 -> 125 ;
126 [label="entropy = 0.0\nsamples = 3\nvalue = [0, 3]"] ;
122 -> 126 ;
127 [label="x[4] <= 0.342\nentropy = 0.722\nsamples = 5\nvalue = [4, 1]"] ;
85 -> 127 ;
128 [label="entropy = 0.0\nsamples = 3\nvalue = [3, 0]"] ;
127 -> 128 ;
129 [label="x[9] <= 0.976\nentropy = 1.0\nsamples = 2\nvalue = [1, 1]"] ;
127 -> 129 ;
130 [label="entropy = 0.0\nsamples = 1\nvalue = [1, 0]"] ;
129 -> 130 ;
131 [label="entropy = 0.0\nsamples = 1\nvalue = [0, 1]"] ;
129 -> 131 ;
132 [label="x[0] <= -1.244\nentropy = 0.386\nsamples = 53\nvalue = [4, 49]"] ;
72 -> 132 ;
133 [label="entropy = 0.0\nsamples = 3\nvalue = [3, 0]"] ;
132 -> 133 ;
134 [label="x[5] <= -0.179\nentropy = 0.141\nsamples = 50\nvalue = [1, 49]"] ;
132 -> 134 ;
135 [label="entropy = 0.0\nsamples = 45\nvalue = [0, 45]"] ;
134 -> 135 ;
136 [label="x[5] <= -0.16\nentropy = 0.722\nsamples = 5\nvalue = [1, 4]"] ;
134 -> 136 ;
137 [label="entropy = 0.0\nsamples = 1\nvalue = [1, 0]"] ;
136 -> 137 ;
138 [label="entropy = 0.0\nsamples = 4\nvalue = [0, 4]"] ;
136 -> 138 ;
139 [label="x[9] <= -1.016\nentropy = 0.811\nsamples = 8\nvalue = [6, 2]"] ;
71 -> 139 ;
140 [label="entropy = 0.0\nsamples = 2\nvalue = [0, 2]"] ;
139 -> 140 ;
141 [label="entropy = 0.0\nsamples = 6\nvalue = [6, 0]"] ;
139 -> 141 ;
142 [label="x[4] <= -0.674\nentropy = 0.994\nsamples = 143\nvalue = [65, 78]"] ;
70 -> 142 ;
143 [label="x[0] <= -0.786\nentropy = 0.822\nsamples = 35\nvalue = [26, 9]"] ;
142 -> 143 ;
144 [label="entropy = 0.0\nsamples = 9\nvalue = [9, 0]"] ;
143 -> 144 ;
145 [label="x[3] <= -0.286\nentropy = 0.931\nsamples = 26\nvalue = [17, 9]"] ;
143 -> 145 ;
146 [label="x[4] <= -1.214\nentropy = 0.65\nsamples = 6\nvalue = [1, 5]"] ;
145 -> 146 ;
147 [label="entropy = 0.0\nsamples = 1\nvalue = [1, 0]"] ;
146 -> 147 ;
148 [label="entropy = 0.0\nsamples = 5\nvalue = [0, 5]"] ;
146 -> 148 ;
149 [label="x[0] <= -0.695\nentropy = 0.722\nsamples = 20\nvalue = [16, 4]"] ;
145 -> 149 ;
150 [label="entropy = 0.0\nsamples = 2\nvalue = [0, 2]"] ;
149 -> 150 ;
151 [label="x[3] <= -0.135\nentropy = 0.503\nsamples = 18\nvalue = [16, 2]"] ;
149 -> 151 ;
152 [label="x[0] <= 1.32\nentropy = 0.918\nsamples = 6\nvalue = [4, 2]"] ;
151 -> 152 ;
153 [label="x[0] <= 0.222\nentropy = 0.722\nsamples = 5\nvalue = [4, 1]"] ;
152 -> 153 ;
154 [label="x[0] <= -0.109\nentropy = 1.0\nsamples = 2\nvalue = [1, 1]"] ;
153 -> 154 ;
155 [label="entropy = 0.0\nsamples = 1\nvalue = [1, 0]"] ;
154 -> 155 ;
156 [label="entropy = 0.0\nsamples = 1\nvalue = [0, 1]"] ;
154 -> 156 ;
157 [label="entropy = 0.0\nsamples = 3\nvalue = [3, 0]"] ;
153 -> 157 ;
158 [label="entropy = 0.0\nsamples = 1\nvalue = [0, 1]"] ;
152 -> 158 ;
159 [label="entropy = 0.0\nsamples = 12\nvalue = [12, 0]"] ;
151 -> 159 ;
160 [label="x[0] <= 0.98\nentropy = 0.944\nsamples = 108\nvalue = [39, 69]"] ;
142 -> 160 ;
161 [label="x[9] <= -0.414\nentropy = 0.984\nsamples = 87\nvalue = [37, 50]"] ;
160 -> 161 ;
162 [label="x[5] <= -0.241\nentropy = 0.929\nsamples = 29\nvalue = [19, 10]"] ;
161 -> 162 ;
163 [label="x[9] <= -1.092\nentropy = 0.84\nsamples = 26\nvalue = [19, 7]"] ;
162 -> 163 ;
164 [label="entropy = 0.0\nsamples = 8\nvalue = [8, 0]"] ;
163 -> 164 ;
165 [label="x[3] <= -0.567\nentropy = 0.964\nsamples = 18\nvalue = [11, 7]"] ;
163 -> 165 ;
166 [label="entropy = 0.0\nsamples = 5\nvalue = [0, 5]"] ;
165 -> 166 ;
167 [label="x[9] <= -1.022\nentropy = 0.619\nsamples = 13\nvalue = [11, 2]"] ;
165 -> 167 ;
168 [label="entropy = 0.0\nsamples = 1\nvalue = [0, 1]"] ;
167 -> 168 ;
169 [label="x[0] <= -1.392\nentropy = 0.414\nsamples = 12\nvalue = [11, 1]"] ;
167 -> 169 ;
170 [label="x[4] <= 0.515\nentropy = 0.918\nsamples = 3\nvalue = [2, 1]"] ;
169 -> 170 ;
171 [label="entropy = 0.0\nsamples = 2\nvalue = [2, 0]"] ;
170 -> 171 ;
172 [label="entropy = 0.0\nsamples = 1\nvalue = [0, 1]"] ;
170 -> 172 ;
173 [label="entropy = 0.0\nsamples = 9\nvalue = [9, 0]"] ;
169 -> 173 ;
174 [label="entropy = 0.0\nsamples = 3\nvalue = [0, 3]"] ;
162 -> 174 ;
175 [label="x[0] <= -0.117\nentropy = 0.894\nsamples = 58\nvalue = [18, 40]"] ;
161 -> 175 ;
176 [label="x[9] <= -0.089\nentropy = 0.759\nsamples = 41\nvalue = [9, 32]"] ;
175 -> 176 ;
177 [label="entropy = 0.0\nsamples = 12\nvalue = [0, 12]"] ;
176 -> 177 ;
178 [label="x[0] <= -0.843\nentropy = 0.894\nsamples = 29\nvalue = [9, 20]"] ;
176 -> 178 ;
179 [label="x[4] <= 0.193\nentropy = 0.946\nsamples = 11\nvalue = [7, 4]"] ;
178 -> 179 ;
180 [label="entropy = 0.0\nsamples = 4\nvalue = [4, 0]"] ;
179 -> 180 ;
181 [label="x[0] <= -1.691\nentropy = 0.985\nsamples = 7\nvalue = [3, 4]"] ;
179 -> 181 ;
182 [label="entropy = 0.0\nsamples = 3\nvalue = [0, 3]"] ;
181 -> 182 ;
183 [label="x[9] <= -0.013\nentropy = 0.811\nsamples = 4\nvalue = [3, 1]"] ;
181 -> 183 ;
184 [label="entropy = 0.0\nsamples = 1\nvalue = [0, 1]"] ;
183 -> 184 ;
185 [label="entropy = 0.0\nsamples = 3\nvalue = [3, 0]"] ;
183 -> 185 ;
186 [label="x[4] <= 0.17\nentropy = 0.503\nsamples = 18\nvalue = [2, 16]"] ;
178 -> 186 ;
187 [label="x[1] <= -0.301\nentropy = 0.971\nsamples = 5\nvalue = [2, 3]"] ;
186 -> 187 ;
188 [label="entropy = 0.0\nsamples = 2\nvalue = [2, 0]"] ;
187 -> 188 ;
189 [label="entropy = 0.0\nsamples = 3\nvalue = [0, 3]"] ;
187 -> 189 ;
190 [label="entropy = 0.0\nsamples = 13\nvalue = [0, 13]"] ;
186 -> 190 ;
191 [label="x[9] <= 1.37\nentropy = 0.998\nsamples = 17\nvalue = [9, 8]"] ;
175 -> 191 ;
192 [label="x[3] <= 0.123\nentropy = 0.971\nsamples = 15\nvalue = [9, 6]"] ;
191 -> 192 ;
193 [label="x[1] <= -0.301\nentropy = 0.89\nsamples = 13\nvalue = [9, 4]"] ;
192 -> 193 ;
194 [label="x[5] <= -0.856\nentropy = 0.991\nsamples = 9\nvalue = [5, 4]"] ;
193 -> 194 ;
195 [label="x[0] <= 0.544\nentropy = 0.918\nsamples = 6\nvalue = [2, 4]"] ;
194 -> 195 ;
196 [label="x[0] <= 0.058\nentropy = 0.918\nsamples = 3\nvalue = [2, 1]"] ;
195 -> 196 ;
197 [label="entropy = 0.0\nsamples = 1\nvalue = [0, 1]"] ;
196 -> 197 ;
198 [label="entropy = 0.0\nsamples = 2\nvalue = [2, 0]"] ;
196 -> 198 ;
199 [label="entropy = 0.0\nsamples = 3\nvalue = [0, 3]"] ;
195 -> 199 ;
200 [label="entropy = 0.0\nsamples = 3\nvalue = [3, 0]"] ;
194 -> 200 ;
201 [label="entropy = 0.0\nsamples = 4\nvalue = [4, 0]"] ;
193 -> 201 ;
202 [label="entropy = 0.0\nsamples = 2\nvalue = [0, 2]"] ;
192 -> 202 ;
203 [label="entropy = 0.0\nsamples = 2\nvalue = [0, 2]"] ;
191 -> 203 ;
204 [label="x[9] <= 0.265\nentropy = 0.454\nsamples = 21\nvalue = [2, 19]"] ;
160 -> 204 ;
205 [label="x[9] <= -0.539\nentropy = 0.722\nsamples = 10\nvalue = [2, 8]"] ;
204 -> 205 ;
206 [label="entropy = 0.0\nsamples = 8\nvalue = [0, 8]"] ;
205 -> 206 ;
207 [label="entropy = 0.0\nsamples = 2\nvalue = [2, 0]"] ;
205 -> 207 ;
208 [label="entropy = 0.0\nsamples = 11\nvalue = [0, 11]"] ;
204 -> 208 ;
209 [label="x[0] <= 0.616\nentropy = 0.997\nsamples = 288\nvalue = [154, 134]"] ;
69 -> 209 ;
210 [label="x[9] <= 1.464\nentropy = 0.998\nsamples = 231\nvalue = [109, 122]"] ;
209 -> 210 ;
211 [label="x[4] <= 1.024\nentropy = 0.994\nsamples = 223\nvalue = [101, 122]"] ;
210 -> 211 ;
212 [label="x[3] <= 0.194\nentropy = 0.973\nsamples = 181\nvalue = [73, 108]"] ;
211 -> 212 ;
213 [label="x[3] <= 0.11\nentropy = 0.953\nsamples = 169\nvalue = [63, 106]"] ;
212 -> 213 ;
214 [label="x[9] <= 1.229\nentropy = 0.967\nsamples = 160\nvalue = [63, 97]"] ;
213 -> 214 ;
215 [label="x[1] <= -0.866\nentropy = 0.982\nsamples = 145\nvalue = [61, 84]"] ;
214 -> 215 ;
216 [label="x[9] <= -0.68\nentropy = 1.0\nsamples = 84\nvalue = [43, 41]"] ;
215 -> 216 ;
217 [label="x[4] <= 0.047\nentropy = 0.91\nsamples = 40\nvalue = [13, 27]"] ;
216 -> 217 ;
218 [label="x[9] <= -0.907\nentropy = 0.837\nsamples = 15\nvalue = [11, 4]"] ;
217 -> 218 ;
219 [label="entropy = 0.0\nsamples = 10\nvalue = [10, 0]"] ;
218 -> 219 ;
220 [label="x[0] <= -0.859\nentropy = 0.722\nsamples = 5\nvalue = [1, 4]"] ;
218 -> 220 ;
221 [label="entropy = 0.0\nsamples = 4\nvalue = [0, 4]"] ;
220 -> 221 ;
222 [label="entropy = 0.0\nsamples = 1\nvalue = [1, 0]"] ;
220 -> 222 ;
223 [label="x[4] <= 0.374\nentropy = 0.402\nsamples = 25\nvalue = [2, 23]"] ;
217 -> 223 ;
224 [label="x[0] <= -1.026\nentropy = 0.722\nsamples = 10\nvalue = [2, 8]"] ;
223 -> 224 ;
225 [label="entropy = 0.0\nsamples = 1\nvalue = [1, 0]"] ;
224 -> 225 ;
226 [label="x[0] <= 0.083\nentropy = 0.503\nsamples = 9\nvalue = [1, 8]"] ;
224 -> 226 ;
227 [label="entropy = 0.0\nsamples = 7\nvalue = [0, 7]"] ;
226 -> 227 ;
228 [label="x[2] <= -0.092\nentropy = 1.0\nsamples = 2\nvalue = [1, 1]"] ;
226 -> 228 ;
229 [label="entropy = 0.0\nsamples = 1\nvalue = [0, 1]"] ;
228 -> 229 ;
230 [label="entropy = 0.0\nsamples = 1\nvalue = [1, 0]"] ;
228 -> 230 ;
231 [label="entropy = 0.0\nsamples = 15\nvalue = [0, 15]"] ;
223 -> 231 ;
232 [label="x[0] <= 0.166\nentropy = 0.902\nsamples = 44\nvalue = [30, 14]"] ;
216 -> 232 ;
233 [label="x[0] <= -1.175\nentropy = 0.592\nsamples = 28\nvalue = [24, 4]"] ;
232 -> 233 ;
234 [label="x[3] <= -0.355\nentropy = 0.971\nsamples = 5\nvalue = [2, 3]"] ;
233 -> 234 ;
235 [label="entropy = 0.0\nsamples = 2\nvalue = [2, 0]"] ;
234 -> 235 ;
236 [label="entropy = 0.0\nsamples = 3\nvalue = [0, 3]"] ;
234 -> 236 ;
237 [label="x[9] <= 1.184\nentropy = 0.258\nsamples = 23\nvalue = [22, 1]"] ;
233 -> 237 ;
238 [label="entropy = 0.0\nsamples = 21\nvalue = [21, 0]"] ;
237 -> 238 ;
239 [label="x[0] <= -0.587\nentropy = 1.0\nsamples = 2\nvalue = [1, 1]"] ;
237 -> 239 ;
240 [label="entropy = 0.0\nsamples = 1\nvalue = [1, 0]"] ;
239 -> 240 ;
241 [label="entropy = 0.0\nsamples = 1\nvalue = [0, 1]"] ;
239 -> 241 ;
242 [label="x[9] <= 0.124\nentropy = 0.954\nsamples = 16\nvalue = [6, 10]"] ;
232 -> 242 ;
243 [label="x[0] <= 0.197\nentropy = 0.65\nsamples = 6\nvalue = [5, 1]"] ;
242 -> 243 ;
244 [label="entropy = 0.0\nsamples = 1\nvalue = [0, 1]"] ;
243 -> 244 ;
245 [label="entropy = 0.0\nsamples = 5\nvalue = [5, 0]"] ;
243 -> 245 ;
246 [label="x[3] <= -0.564\nentropy = 0.469\nsamples = 10\nvalue = [1, 9]"] ;
242 -> 246 ;
247 [label="entropy = 0.0\nsamples = 1\nvalue = [1, 0]"] ;
246 -> 247 ;
248 [label="entropy = 0.0\nsamples = 9\nvalue = [0, 9]"] ;
246 -> 248 ;
249 [label="x[1] <= 0.286\nentropy = 0.875\nsamples = 61\nvalue = [18, 43]"] ;
215 -> 249 ;
250 [label="entropy = 0.0\nsamples = 22\nvalue = [0, 22]"] ;
249 -> 250 ;
251 [label="x[0] <= 0.373\nentropy = 0.996\nsamples = 39\nvalue = [18, 21]"] ;
249 -> 251 ;
252 [label="x[3] <= 0.003\nentropy = 0.98\nsamples = 36\nvalue = [15, 21]"] ;
251 -> 252 ;
253 [label="x[3] <= -0.169\nentropy = 0.938\nsamples = 31\nvalue = [11, 20]"] ;
252 -> 253 ;
254 [label="x[0] <= 0.162\nentropy = 0.994\nsamples = 22\nvalue = [10, 12]"] ;
253 -> 254 ;
255 [label="x[3] <= -0.579\nentropy = 0.985\nsamples = 21\nvalue = [9, 12]"] ;
254 -> 255 ;
256 [label="entropy = 0.0\nsamples = 3\nvalue = [0, 3]"] ;
255 -> 256 ;
257 [label="x[3] <= -0.558\nentropy = 1.0\nsamples = 18\nvalue = [9, 9]"] ;
255 -> 257 ;
258 [label="entropy = 0.0\nsamples = 3\nvalue = [3, 0]"] ;
257 -> 258 ;
259 [label="x[9] <= -0.58\nentropy = 0.971\nsamples = 15\nvalue = [6, 9]"] ;
257 -> 259 ;
260 [label="x[9] <= -1.442\nentropy = 0.592\nsamples = 7\nvalue = [1, 6]"] ;
259 -> 260 ;
261 [label="x[4] <= 0.515\nentropy = 1.0\nsamples = 2\nvalue = [1, 1]"] ;
260 -> 261 ;
262 [label="entropy = 0.0\nsamples = 1\nvalue = [0, 1]"] ;
261 -> 262 ;
263 [label="entropy = 0.0\nsamples = 1\nvalue = [1, 0]"] ;
261 -> 263 ;
264 [label="entropy = 0.0\nsamples = 5\nvalue = [0, 5]"] ;
260 -> 264 ;
265 [label="x[2] <= -0.092\nentropy = 0.954\nsamples = 8\nvalue = [5, 3]"] ;
259 -> 265 ;
266 [label="entropy = 0.0\nsamples = 3\nvalue = [3, 0]"] ;
265 -> 266 ;
267 [label="x[9] <= 0.503\nentropy = 0.971\nsamples = 5\nvalue = [2, 3]"] ;
265 -> 267 ;
268 [label="x[9] <= -0.098\nentropy = 0.918\nsamples = 3\nvalue = [2, 1]"] ;
267 -> 268 ;
269 [label="entropy = 0.0\nsamples = 1\nvalue = [0, 1]"] ;
268 -> 269 ;
270 [label="entropy = 0.0\nsamples = 2\nvalue = [2, 0]"] ;
268 -> 270 ;
271 [label="entropy = 0.0\nsamples = 2\nvalue = [0, 2]"] ;
267 -> 271 ;
272 [label="entropy = 0.0\nsamples = 1\nvalue = [1, 0]"] ;
254 -> 272 ;
273 [label="x[0] <= -0.414\nentropy = 0.503\nsamples = 9\nvalue = [1, 8]"] ;
253 -> 273 ;
274 [label="entropy = 0.0\nsamples = 8\nvalue = [0, 8]"] ;
273 -> 274 ;
275 [label="entropy = 0.0\nsamples = 1\nvalue = [1, 0]"] ;
273 -> 275 ;
276 [label="x[0] <= 0.119\nentropy = 0.722\nsamples = 5\nvalue = [4, 1]"] ;
252 -> 276 ;
277 [label="entropy = 0.0\nsamples = 4\nvalue = [4, 0]"] ;
276 -> 277 ;
278 [label="entropy = 0.0\nsamples = 1\nvalue = [0, 1]"] ;
276 -> 278 ;
279 [label="entropy = 0.0\nsamples = 3\nvalue = [3, 0]"] ;
251 -> 279 ;
280 [label="x[9] <= 1.408\nentropy = 0.567\nsamples = 15\nvalue = [2, 13]"] ;
214 -> 280 ;
281 [label="entropy = 0.0\nsamples = 10\nvalue = [0, 10]"] ;
280 -> 281 ;
282 [label="x[9] <= 1.437\nentropy = 0.971\nsamples = 5\nvalue = [2, 3]"] ;
280 -> 282 ;
283 [label="x[3] <= -0.611\nentropy = 0.918\nsamples = 3\nvalue = [2, 1]"] ;
282 -> 283 ;
284 [label="entropy = 0.0\nsamples = 1\nvalue = [0, 1]"] ;
283 -> 284 ;
285 [label="entropy = 0.0\nsamples = 2\nvalue = [2, 0]"] ;
283 -> 285 ;
286 [label="entropy = 0.0\nsamples = 2\nvalue = [0, 2]"] ;
282 -> 286 ;
287 [label="entropy = 0.0\nsamples = 9\nvalue = [0, 9]"] ;
213 -> 287 ;
288 [label="x[4] <= -0.695\nentropy = 0.65\nsamples = 12\nvalue = [10, 2]"] ;
212 -> 288 ;
289 [label="entropy = 0.0\nsamples = 1\nvalue = [0, 1]"] ;
288 -> 289 ;
290 [label="x[0] <= -0.859\nentropy = 0.439\nsamples = 11\nvalue = [10, 1]"] ;
288 -> 290 ;
291 [label="x[0] <= -1.195\nentropy = 1.0\nsamples = 2\nvalue = [1, 1]"] ;
290 -> 291 ;
292 [label="entropy = 0.0\nsamples = 1\nvalue = [1, 0]"] ;
291 -> 292 ;
293 [label="entropy = 0.0\nsamples = 1\nvalue = [0, 1]"] ;
291 -> 293 ;
294 [label="entropy = 0.0\nsamples = 9\nvalue = [9, 0]"] ;
290 -> 294 ;
295 [label="x[4] <= 1.467\nentropy = 0.918\nsamples = 42\nvalue = [28, 14]"] ;
211 -> 295 ;
296 [label="x[4] <= 1.256\nentropy = 0.592\nsamples = 28\nvalue = [24, 4]"] ;
295 -> 296 ;
297 [label="x[4] <= 1.073\nentropy = 0.764\nsamples = 18\nvalue = [14, 4]"] ;
296 -> 297 ;
298 [label="x[5] <= -0.469\nentropy = 0.353\nsamples = 15\nvalue = [14, 1]"] ;
297 -> 298 ;
299 [label="entropy = 0.0\nsamples = 13\nvalue = [13, 0]"] ;
298 -> 299 ;
300 [label="x[3] <= 0.056\nentropy = 1.0\nsamples = 2\nvalue = [1, 1]"] ;
298 -> 300 ;
301 [label="entropy = 0.0\nsamples = 1\nvalue = [0, 1]"] ;
300 -> 301 ;
302 [label="entropy = 0.0\nsamples = 1\nvalue = [1, 0]"] ;
300 -> 302 ;
303 [label="entropy = 0.0\nsamples = 3\nvalue = [0, 3]"] ;
297 -> 303 ;
304 [label="entropy = 0.0\nsamples = 10\nvalue = [10, 0]"] ;
296 -> 304 ;
305 [label="x[3] <= -0.367\nentropy = 0.863\nsamples = 14\nvalue = [4, 10]"] ;
295 -> 305 ;
306 [label="x[9] <= -0.483\nentropy = 0.985\nsamples = 7\nvalue = [4, 3]"] ;
305 -> 306 ;
307 [label="x[0] <= -0.121\nentropy = 0.811\nsamples = 4\nvalue = [1, 3]"] ;
306 -> 307 ;
308 [label="entropy = 0.0\nsamples = 3\nvalue = [0, 3]"] ;
307 -> 308 ;
309 [label="entropy = 0.0\nsamples = 1\nvalue = [1, 0]"] ;
307 -> 309 ;
310 [label="entropy = 0.0\nsamples = 3\nvalue = [3, 0]"] ;
306 -> 310 ;
311 [label="entropy = 0.0\nsamples = 7\nvalue = [0, 7]"] ;
305 -> 311 ;
312 [label="entropy = 0.0\nsamples = 8\nvalue = [8, 0]"] ;
210 -> 312 ;
313 [label="x[6] <= -0.773\nentropy = 0.742\nsamples = 57\nvalue = [45, 12]"] ;
209 -> 313 ;
314 [label="x[9] <= 0.286\nentropy = 0.57\nsamples = 52\nvalue = [45, 7]"] ;
313 -> 314 ;
315 [label="x[0] <= 1.768\nentropy = 0.31\nsamples = 36\nvalue = [34, 2]"] ;
314 -> 315 ;
316 [label="entropy = 0.0\nsamples = 32\nvalue = [32, 0]"] ;
315 -> 316 ;
317 [label="x[0] <= 1.977\nentropy = 1.0\nsamples = 4\nvalue = [2, 2]"] ;
315 -> 317 ;
318 [label="entropy = 0.0\nsamples = 2\nvalue = [0, 2]"] ;
317 -> 318 ;
319 [label="entropy = 0.0\nsamples = 2\nvalue = [2, 0]"] ;
317 -> 319 ;
320 [label="x[5] <= -1.094\nentropy = 0.896\nsamples = 16\nvalue = [11, 5]"] ;
314 -> 320 ;
321 [label="x[9] <= 0.38\nentropy = 0.65\nsamples = 12\nvalue = [10, 2]"] ;
320 -> 321 ;
322 [label="entropy = 0.0\nsamples = 1\nvalue = [0, 1]"] ;
321 -> 322 ;
323 [label="x[9] <= 1.53\nentropy = 0.439\nsamples = 11\nvalue = [10, 1]"] ;
321 -> 323 ;
324 [label="entropy = 0.0\nsamples = 10\nvalue = [10, 0]"] ;
323 -> 324 ;
325 [label="entropy = 0.0\nsamples = 1\nvalue = [0, 1]"] ;
323 -> 325 ;
326 [label="x[4] <= 0.515\nentropy = 0.811\nsamples = 4\nvalue = [1, 3]"] ;
320 -> 326 ;
327 [label="entropy = 0.0\nsamples = 3\nvalue = [0, 3]"] ;
326 -> 327 ;
328 [label="entropy = 0.0\nsamples = 1\nvalue = [1, 0]"] ;
326 -> 328 ;
329 [label="entropy = 0.0\nsamples = 5\nvalue = [0, 5]"] ;
313 -> 329 ;
330 [label="x[3] <= -0.373\nentropy = 0.789\nsamples = 1682\nvalue = [1284, 398]"] ;
4 -> 330 ;
331 [label="x[6] <= -0.727\nentropy = 0.627\nsamples = 968\nvalue = [816, 152]"] ;
330 -> 331 ;
332 [label="x[5] <= 1.581\nentropy = 0.608\nsamples = 959\nvalue = [816, 143]"] ;
331 -> 332 ;
333 [label="x[4] <= 0.338\nentropy = 0.564\nsamples = 907\nvalue = [787, 120]"] ;
332 -> 333 ;
334 [label="x[4] <= 0.038\nentropy = 0.651\nsamples = 533\nvalue = [444, 89]"] ;
333 -> 334 ;
335 [label="x[8] <= 0.942\nentropy = 0.628\nsamples = 527\nvalue = [444, 83]"] ;
334 -> 335 ;
336 [label="x[3] <= -0.564\nentropy = 0.754\nsamples = 263\nvalue = [206, 57]"] ;
335 -> 336 ;
337 [label="x[3] <= -0.645\nentropy = 0.851\nsamples = 177\nvalue = [128, 49]"] ;
336 -> 337 ;
338 [label="x[0] <= 1.33\nentropy = 0.827\nsamples = 173\nvalue = [128, 45]"] ;
337 -> 338 ;
339 [label="x[9] <= 0.905\nentropy = 0.852\nsamples = 162\nvalue = [117, 45]"] ;
338 -> 339 ;
340 [label="x[4] <= -0.971\nentropy = 0.902\nsamples = 132\nvalue = [90, 42]"] ;
339 -> 340 ;
341 [label="x[0] <= 0.176\nentropy = 0.632\nsamples = 44\nvalue = [37, 7]"] ;
340 -> 341 ;
342 [label="entropy = 0.0\nsamples = 24\nvalue = [24, 0]"] ;
341 -> 342 ;
343 [label="x[4] <= -1.181\nentropy = 0.934\nsamples = 20\nvalue = [13, 7]"] ;
341 -> 343 ;
344 [label="x[0] <= 0.383\nentropy = 0.996\nsamples = 13\nvalue = [6, 7]"] ;
343 -> 344 ;
345 [label="entropy = 0.0\nsamples = 3\nvalue = [0, 3]"] ;
344 -> 345 ;
346 [label="x[3] <= -0.721\nentropy = 0.971\nsamples = 10\nvalue = [6, 4]"] ;
344 -> 346 ;
347 [label="x[1] <= -0.301\nentropy = 0.811\nsamples = 8\nvalue = [6, 2]"] ;
346 -> 347 ;
348 [label="entropy = 0.0\nsamples = 4\nvalue = [4, 0]"] ;
347 -> 348 ;
349 [label="x[3] <= -0.996\nentropy = 1.0\nsamples = 4\nvalue = [2, 2]"] ;
347 -> 349 ;
350 [label="entropy = 0.0\nsamples = 1\nvalue = [0, 1]"] ;
349 -> 350 ;
351 [label="x[0] <= 0.978\nentropy = 0.918\nsamples = 3\nvalue = [2, 1]"] ;
349 -> 351 ;
352 [label="entropy = 0.0\nsamples = 2\nvalue = [2, 0]"] ;
351 -> 352 ;
353 [label="entropy = 0.0\nsamples = 1\nvalue = [0, 1]"] ;
351 -> 353 ;
354 [label="entropy = 0.0\nsamples = 2\nvalue = [0, 2]"] ;
346 -> 354 ;
355 [label="entropy = 0.0\nsamples = 7\nvalue = [7, 0]"] ;
343 -> 355 ;
356 [label="x[4] <= -0.699\nentropy = 0.97\nsamples = 88\nvalue = [53, 35]"] ;
340 -> 356 ;
357 [label="entropy = 0.0\nsamples = 7\nvalue = [0, 7]"] ;
356 -> 357 ;
358 [label="x[3] <= -0.763\nentropy = 0.93\nsamples = 81\nvalue = [53, 28]"] ;
356 -> 358 ;
359 [label="x[9] <= -0.869\nentropy = 0.99\nsamples = 59\nvalue = [33, 26]"] ;
358 -> 359 ;
360 [label="x[0] <= 0.331\nentropy = 0.792\nsamples = 21\nvalue = [16, 5]"] ;
359 -> 360 ;
361 [label="x[9] <= -1.71\nentropy = 0.353\nsamples = 15\nvalue = [14, 1]"] ;
360 -> 361 ;
362 [label="entropy = 0.0\nsamples = 1\nvalue = [0, 1]"] ;
361 -> 362 ;
363 [label="entropy = 0.0\nsamples = 14\nvalue = [14, 0]"] ;
361 -> 363 ;
364 [label="x[0] <= 0.864\nentropy = 0.918\nsamples = 6\nvalue = [2, 4]"] ;
360 -> 364 ;
365 [label="entropy = 0.0\nsamples = 3\nvalue = [0, 3]"] ;
364 -> 365 ;
366 [label="x[5] <= 0.613\nentropy = 0.918\nsamples = 3\nvalue = [2, 1]"] ;
364 -> 366 ;
367 [label="entropy = 0.0\nsamples = 2\nvalue = [2, 0]"] ;
366 -> 367 ;
368 [label="entropy = 0.0\nsamples = 1\nvalue = [0, 1]"] ;
366 -> 368 ;
369 [label="x[5] <= 0.707\nentropy = 0.992\nsamples = 38\nvalue = [17, 21]"] ;
359 -> 369 ;
370 [label="x[0] <= 0.361\nentropy = 0.949\nsamples = 19\nvalue = [12, 7]"] ;
369 -> 370 ;
371 [label="x[0] <= -0.005\nentropy = 1.0\nsamples = 14\nvalue = [7, 7]"] ;
370 -> 371 ;
372 [label="x[0] <= -1.428\nentropy = 0.881\nsamples = 10\nvalue = [7, 3]"] ;
371 -> 372 ;
373 [label="entropy = 0.0\nsamples = 1\nvalue = [0, 1]"] ;
372 -> 373 ;
374 [label="x[5] <= 0.611\nentropy = 0.764\nsamples = 9\nvalue = [7, 2]"] ;
372 -> 374 ;
375 [label="entropy = 0.0\nsamples = 5\nvalue = [5, 0]"] ;
374 -> 375 ;
376 [label="x[5] <= 0.659\nentropy = 1.0\nsamples = 4\nvalue = [2, 2]"] ;
374 -> 376 ;
377 [label="entropy = 0.0\nsamples = 2\nvalue = [0, 2]"] ;
376 -> 377 ;
378 [label="entropy = 0.0\nsamples = 2\nvalue = [2, 0]"] ;
376 -> 378 ;
379 [label="entropy = 0.0\nsamples = 4\nvalue = [0, 4]"] ;
371 -> 379 ;
380 [label="entropy = 0.0\nsamples = 5\nvalue = [5, 0]"] ;
370 -> 380 ;
381 [label="x[5] <= 1.151\nentropy = 0.831\nsamples = 19\nvalue = [5, 14]"] ;
369 -> 381 ;
382 [label="x[0] <= -1.771\nentropy = 0.544\nsamples = 16\nvalue = [2, 14]"] ;
381 -> 382 ;
383 [label="entropy = 0.0\nsamples = 1\nvalue = [1, 0]"] ;
382 -> 383 ;
384 [label="x[5] <= 0.983\nentropy = 0.353\nsamples = 15\nvalue = [1, 14]"] ;
382 -> 384 ;
385 [label="entropy = 0.0\nsamples = 11\nvalue = [0, 11]"] ;
384 -> 385 ;
386 [label="x[7] <= -0.451\nentropy = 0.811\nsamples = 4\nvalue = [1, 3]"] ;
384 -> 386 ;
387 [label="entropy = 0.0\nsamples = 3\nvalue = [0, 3]"] ;
386 -> 387 ;
388 [label="entropy = 0.0\nsamples = 1\nvalue = [1, 0]"] ;
386 -> 388 ;
389 [label="entropy = 0.0\nsamples = 3\nvalue = [3, 0]"] ;
381 -> 389 ;
390 [label="x[5] <= 0.939\nentropy = 0.439\nsamples = 22\nvalue = [20, 2]"] ;
358 -> 390 ;
391 [label="entropy = 0.0\nsamples = 13\nvalue = [13, 0]"] ;
390 -> 391 ;
392 [label="x[5] <= 0.967\nentropy = 0.764\nsamples = 9\nvalue = [7, 2]"] ;
390 -> 392 ;
393 [label="entropy = 0.0\nsamples = 2\nvalue = [0, 2]"] ;
392 -> 393 ;
394 [label="entropy = 0.0\nsamples = 7\nvalue = [7, 0]"] ;
392 -> 394 ;
395 [label="x[9] <= 1.55\nentropy = 0.469\nsamples = 30\nvalue = [27, 3]"] ;
339 -> 395 ;
396 [label="entropy = 0.0\nsamples = 26\nvalue = [26, 0]"] ;
395 -> 396 ;
397 [label="x[3] <= -0.898\nentropy = 0.811\nsamples = 4\nvalue = [1, 3]"] ;
395 -> 397 ;
398 [label="entropy = 0.0\nsamples = 1\nvalue = [1, 0]"] ;
397 -> 398 ;
399 [label="entropy = 0.0\nsamples = 3\nvalue = [0, 3]"] ;
397 -> 399 ;
400 [label="entropy = 0.0\nsamples = 11\nvalue = [11, 0]"] ;
338 -> 400 ;
401 [label="entropy = 0.0\nsamples = 4\nvalue = [0, 4]"] ;
337 -> 401 ;
402 [label="x[5] <= 0.76\nentropy = 0.446\nsamples = 86\nvalue = [78, 8]"] ;
336 -> 402 ;
403 [label="entropy = 0.0\nsamples = 44\nvalue = [44, 0]"] ;
402 -> 403 ;
404 [label="x[4] <= -1.411\nentropy = 0.702\nsamples = 42\nvalue = [34, 8]"] ;
402 -> 404 ;
405 [label="entropy = 0.0\nsamples = 3\nvalue = [0, 3]"] ;
404 -> 405 ;
406 [label="x[5] <= 0.765\nentropy = 0.552\nsamples = 39\nvalue = [34, 5]"] ;
404 -> 406 ;
407 [label="entropy = 0.0\nsamples = 1\nvalue = [0, 1]"] ;
406 -> 407 ;
408 [label="x[5] <= 1.231\nentropy = 0.485\nsamples = 38\nvalue = [34, 4]"] ;
406 -> 408 ;
409 [label="x[5] <= 0.811\nentropy = 0.222\nsamples = 28\nvalue = [27, 1]"] ;
408 -> 409 ;
410 [label="x[5] <= 0.783\nentropy = 0.918\nsamples = 3\nvalue = [2, 1]"] ;
409 -> 410 ;
411 [label="entropy = 0.0\nsamples = 2\nvalue = [2, 0]"] ;
410 -> 411 ;
412 [label="entropy = 0.0\nsamples = 1\nvalue = [0, 1]"] ;
410 -> 412 ;
413 [label="entropy = 0.0\nsamples = 25\nvalue = [25, 0]"] ;
409 -> 413 ;
414 [label="x[3] <= -0.501\nentropy = 0.881\nsamples = 10\nvalue = [7, 3]"] ;
408 -> 414 ;
415 [label="entropy = 0.0\nsamples = 2\nvalue = [0, 2]"] ;
414 -> 415 ;
416 [label="x[9] <= 1.095\nentropy = 0.544\nsamples = 8\nvalue = [7, 1]"] ;
414 -> 416 ;
417 [label="entropy = 0.0\nsamples = 6\nvalue = [6, 0]"] ;
416 -> 417 ;
418 [label="x[3] <= -0.387\nentropy = 1.0\nsamples = 2\nvalue = [1, 1]"] ;
416 -> 418 ;
419 [label="entropy = 0.0\nsamples = 1\nvalue = [0, 1]"] ;
418 -> 419 ;
420 [label="entropy = 0.0\nsamples = 1\nvalue = [1, 0]"] ;
418 -> 420 ;
421 [label="x[0] <= -0.477\nentropy = 0.464\nsamples = 264\nvalue = [238, 26]"] ;
335 -> 421 ;
422 [label="x[0] <= -1.345\nentropy = 0.678\nsamples = 95\nvalue = [78, 17]"] ;
421 -> 422 ;
423 [label="entropy = 0.0\nsamples = 32\nvalue = [32, 0]"] ;
422 -> 423 ;
424 [label="x[9] <= -0.708\nentropy = 0.841\nsamples = 63\nvalue = [46, 17]"] ;
422 -> 424 ;
425 [label="x[4] <= -0.176\nentropy = 0.31\nsamples = 18\nvalue = [17, 1]"] ;
424 -> 425 ;
426 [label="entropy = 0.0\nsamples = 15\nvalue = [15, 0]"] ;
425 -> 426 ;
427 [label="x[7] <= -0.451\nentropy = 0.918\nsamples = 3\nvalue = [2, 1]"] ;
425 -> 427 ;
428 [label="entropy = 0.0\nsamples = 2\nvalue = [2, 0]"] ;
427 -> 428 ;
429 [label="entropy = 0.0\nsamples = 1\nvalue = [0, 1]"] ;
427 -> 429 ;
430 [label="x[3] <= -0.381\nentropy = 0.939\nsamples = 45\nvalue = [29, 16]"] ;
424 -> 430 ;
431 [label="x[0] <= -0.657\nentropy = 0.977\nsamples = 39\nvalue = [23, 16]"] ;
430 -> 431 ;
432 [label="x[7] <= -0.451\nentropy = 0.881\nsamples = 30\nvalue = [21, 9]"] ;
431 -> 432 ;
433 [label="entropy = 0.0\nsamples = 10\nvalue = [10, 0]"] ;
432 -> 433 ;
434 [label="x[2] <= -0.092\nentropy = 0.993\nsamples = 20\nvalue = [11, 9]"] ;
432 -> 434 ;
435 [label="x[5] <= 1.022\nentropy = 0.764\nsamples = 9\nvalue = [7, 2]"] ;
434 -> 435 ;
436 [label="entropy = 0.0\nsamples = 7\nvalue = [7, 0]"] ;
435 -> 436 ;
437 [label="entropy = 0.0\nsamples = 2\nvalue = [0, 2]"] ;
435 -> 437 ;
438 [label="x[5] <= 0.782\nentropy = 0.946\nsamples = 11\nvalue = [4, 7]"] ;
434 -> 438 ;
439 [label="x[9] <= 0.037\nentropy = 0.764\nsamples = 9\nvalue = [2, 7]"] ;
438 -> 439 ;
440 [label="x[5] <= 0.572\nentropy = 0.918\nsamples = 3\nvalue = [2, 1]"] ;
439 -> 440 ;
441 [label="entropy = 0.0\nsamples = 2\nvalue = [2, 0]"] ;
440 -> 441 ;
442 [label="entropy = 0.0\nsamples = 1\nvalue = [0, 1]"] ;
440 -> 442 ;
443 [label="entropy = 0.0\nsamples = 6\nvalue = [0, 6]"] ;
439 -> 443 ;
444 [label="entropy = 0.0\nsamples = 2\nvalue = [2, 0]"] ;
438 -> 444 ;
445 [label="x[5] <= 0.436\nentropy = 0.764\nsamples = 9\nvalue = [2, 7]"] ;
431 -> 445 ;
446 [label="x[4] <= -1.452\nentropy = 0.918\nsamples = 3\nvalue = [2, 1]"] ;
445 -> 446 ;
447 [label="entropy = 0.0\nsamples = 1\nvalue = [0, 1]"] ;
446 -> 447 ;
448 [label="entropy = 0.0\nsamples = 2\nvalue = [2, 0]"] ;
446 -> 448 ;
449 [label="entropy = 0.0\nsamples = 6\nvalue = [0, 6]"] ;
445 -> 449 ;
450 [label="entropy = 0.0\nsamples = 6\nvalue = [6, 0]"] ;
430 -> 450 ;
451 [label="x[2] <= -0.092\nentropy = 0.3\nsamples = 169\nvalue = [160, 9]"] ;
421 -> 451 ;
452 [label="x[3] <= -0.618\nentropy = 0.512\nsamples = 79\nvalue = [70, 9]"] ;
451 -> 452 ;
453 [label="x[5] <= -0.029\nentropy = 0.139\nsamples = 51\nvalue = [50, 1]"] ;
452 -> 453 ;
454 [label="entropy = 0.0\nsamples = 1\nvalue = [0, 1]"] ;
453 -> 454 ;
455 [label="entropy = 0.0\nsamples = 50\nvalue = [50, 0]"] ;
453 -> 455 ;
456 [label="x[9] <= -0.961\nentropy = 0.863\nsamples = 28\nvalue = [20, 8]"] ;
452 -> 456 ;
457 [label="x[5] <= 0.646\nentropy = 0.918\nsamples = 6\nvalue = [2, 4]"] ;
456 -> 457 ;
458 [label="x[4] <= -0.522\nentropy = 0.918\nsamples = 3\nvalue = [2, 1]"] ;
457 -> 458 ;
459 [label="entropy = 0.0\nsamples = 1\nvalue = [0, 1]"] ;
458 -> 459 ;
460 [label="entropy = 0.0\nsamples = 2\nvalue = [2, 0]"] ;
458 -> 460 ;
461 [label="entropy = 0.0\nsamples = 3\nvalue = [0, 3]"] ;
457 -> 461 ;
462 [label="x[7] <= -0.451\nentropy = 0.684\nsamples = 22\nvalue = [18, 4]"] ;
456 -> 462 ;
463 [label="x[9] <= 0.851\nentropy = 1.0\nsamples = 6\nvalue = [3, 3]"] ;
462 -> 463 ;
464 [label="entropy = 0.0\nsamples = 3\nvalue = [3, 0]"] ;
463 -> 464 ;
465 [label="entropy = 0.0\nsamples = 3\nvalue = [0, 3]"] ;
463 -> 465 ;
466 [label="x[4] <= -0.226\nentropy = 0.337\nsamples = 16\nvalue = [15, 1]"] ;
462 -> 466 ;
467 [label="entropy = 0.0\nsamples = 14\nvalue = [14, 0]"] ;
466 -> 467 ;
468 [label="x[5] <= 0.554\nentropy = 1.0\nsamples = 2\nvalue = [1, 1]"] ;
466 -> 468 ;
469 [label="entropy = 0.0\nsamples = 1\nvalue = [1, 0]"] ;
468 -> 469 ;
470 [label="entropy = 0.0\nsamples = 1\nvalue = [0, 1]"] ;
468 -> 470 ;
471 [label="entropy = 0.0\nsamples = 90\nvalue = [90, 0]"] ;
451 -> 471 ;
472 [label="entropy = 0.0\nsamples = 6\nvalue = [0, 6]"] ;
334 -> 472 ;
473 [label="x[9] <= 0.878\nentropy = 0.412\nsamples = 374\nvalue = [343, 31]"] ;
333 -> 473 ;
474 [label="x[0] <= 0.507\nentropy = 0.297\nsamples = 285\nvalue = [270, 15]"] ;
473 -> 474 ;
475 [label="x[0] <= 0.419\nentropy = 0.361\nsamples = 204\nvalue = [190, 14]"] ;
474 -> 475 ;
476 [label="x[9] <= -1.315\nentropy = 0.311\nsamples = 197\nvalue = [186, 11]"] ;
475 -> 476 ;
477 [label="entropy = 0.0\nsamples = 39\nvalue = [39, 0]"] ;
476 -> 477 ;
478 [label="x[9] <= -1.307\nentropy = 0.365\nsamples = 158\nvalue = [147, 11]"] ;
476 -> 478 ;
479 [label="entropy = 0.0\nsamples = 1\nvalue = [0, 1]"] ;
478 -> 479 ;
480 [label="x[1] <= -0.734\nentropy = 0.342\nsamples = 157\nvalue = [147, 10]"] ;
478 -> 480 ;
481 [label="x[3] <= -0.55\nentropy = 0.222\nsamples = 112\nvalue = [108, 4]"] ;
480 -> 481 ;
482 [label="x[0] <= 0.067\nentropy = 0.089\nsamples = 89\nvalue = [88, 1]"] ;
481 -> 482 ;
483 [label="entropy = 0.0\nsamples = 73\nvalue = [73, 0]"] ;
482 -> 483 ;
484 [label="x[0] <= 0.114\nentropy = 0.337\nsamples = 16\nvalue = [15, 1]"] ;
482 -> 484 ;
485 [label="x[8] <= -0.029\nentropy = 1.0\nsamples = 2\nvalue = [1, 1]"] ;
484 -> 485 ;
486 [label="entropy = 0.0\nsamples = 1\nvalue = [1, 0]"] ;
485 -> 486 ;
487 [label="entropy = 0.0\nsamples = 1\nvalue = [0, 1]"] ;
485 -> 487 ;
488 [label="entropy = 0.0\nsamples = 14\nvalue = [14, 0]"] ;
484 -> 488 ;
489 [label="x[3] <= -0.502\nentropy = 0.559\nsamples = 23\nvalue = [20, 3]"] ;
481 -> 489 ;
490 [label="entropy = 0.0\nsamples = 1\nvalue = [0, 1]"] ;
489 -> 490 ;
491 [label="x[4] <= 1.13\nentropy = 0.439\nsamples = 22\nvalue = [20, 2]"] ;
489 -> 491 ;
492 [label="entropy = 0.0\nsamples = 16\nvalue = [16, 0]"] ;
491 -> 492 ;
493 [label="x[2] <= -0.092\nentropy = 0.918\nsamples = 6\nvalue = [4, 2]"] ;
491 -> 493 ;
494 [label="x[3] <= -0.429\nentropy = 0.918\nsamples = 3\nvalue = [1, 2]"] ;
493 -> 494 ;
495 [label="entropy = 0.0\nsamples = 1\nvalue = [1, 0]"] ;
494 -> 495 ;
496 [label="entropy = 0.0\nsamples = 2\nvalue = [0, 2]"] ;
494 -> 496 ;
497 [label="entropy = 0.0\nsamples = 3\nvalue = [3, 0]"] ;
493 -> 497 ;
498 [label="x[1] <= 0.247\nentropy = 0.567\nsamples = 45\nvalue = [39, 6]"] ;
480 -> 498 ;
499 [label="entropy = 0.0\nsamples = 2\nvalue = [0, 2]"] ;
498 -> 499 ;
500 [label="x[9] <= -0.508\nentropy = 0.446\nsamples = 43\nvalue = [39, 4]"] ;
498 -> 500 ;
501 [label="entropy = 0.0\nsamples = 19\nvalue = [19, 0]"] ;
500 -> 501 ;
502 [label="x[3] <= -1.136\nentropy = 0.65\nsamples = 24\nvalue = [20, 4]"] ;
500 -> 502 ;
503 [label="x[0] <= -0.021\nentropy = 0.985\nsamples = 7\nvalue = [4, 3]"] ;
502 -> 503 ;
504 [label="x[3] <= -1.565\nentropy = 0.811\nsamples = 4\nvalue = [1, 3]"] ;
503 -> 504 ;
505 [label="entropy = 0.0\nsamples = 1\nvalue = [1, 0]"] ;
504 -> 505 ;
506 [label="entropy = 0.0\nsamples = 3\nvalue = [0, 3]"] ;
504 -> 506 ;
507 [label="entropy = 0.0\nsamples = 3\nvalue = [3, 0]"] ;
503 -> 507 ;
508 [label="x[9] <= -0.453\nentropy = 0.323\nsamples = 17\nvalue = [16, 1]"] ;
502 -> 508 ;
509 [label="entropy = 0.0\nsamples = 1\nvalue = [0, 1]"] ;
508 -> 509 ;
510 [label="entropy = 0.0\nsamples = 16\nvalue = [16, 0]"] ;
508 -> 510 ;
511 [label="x[4] <= 1.181\nentropy = 0.985\nsamples = 7\nvalue = [4, 3]"] ;
475 -> 511 ;
512 [label="entropy = 0.0\nsamples = 3\nvalue = [3, 0]"] ;
511 -> 512 ;
513 [label="x[9] <= -1.549\nentropy = 0.811\nsamples = 4\nvalue = [1, 3]"] ;
511 -> 513 ;
514 [label="entropy = 0.0\nsamples = 1\nvalue = [1, 0]"] ;
513 -> 514 ;
515 [label="entropy = 0.0\nsamples = 3\nvalue = [0, 3]"] ;
513 -> 515 ;
516 [label="x[0] <= 1.785\nentropy = 0.096\nsamples = 81\nvalue = [80, 1]"] ;
474 -> 516 ;
517 [label="entropy = 0.0\nsamples = 70\nvalue = [70, 0]"] ;
516 -> 517 ;
518 [label="x[0] <= 1.816\nentropy = 0.439\nsamples = 11\nvalue = [10, 1]"] ;
516 -> 518 ;
519 [label="entropy = 0.0\nsamples = 1\nvalue = [0, 1]"] ;
518 -> 519 ;
520 [label="entropy = 0.0\nsamples = 10\nvalue = [10, 0]"] ;
518 -> 520 ;
521 [label="x[9] <= 0.905\nentropy = 0.68\nsamples = 89\nvalue = [73, 16]"] ;
473 -> 521 ;
522 [label="x[5] <= 0.038\nentropy = 0.722\nsamples = 5\nvalue = [1, 4]"] ;
521 -> 522 ;
523 [label="entropy = 0.0\nsamples = 1\nvalue = [1, 0]"] ;
522 -> 523 ;
524 [label="entropy = 0.0\nsamples = 4\nvalue = [0, 4]"] ;
522 -> 524 ;
525 [label="x[5] <= 0.943\nentropy = 0.592\nsamples = 84\nvalue = [72, 12]"] ;
521 -> 525 ;
526 [label="x[5] <= 0.284\nentropy = 0.709\nsamples = 62\nvalue = [50, 12]"] ;
525 -> 526 ;
527 [label="entropy = 0.0\nsamples = 13\nvalue = [13, 0]"] ;
526 -> 527 ;
528 [label="x[4] <= 1.09\nentropy = 0.803\nsamples = 49\nvalue = [37, 12]"] ;
526 -> 528 ;
529 [label="x[5] <= 0.332\nentropy = 0.529\nsamples = 25\nvalue = [22, 3]"] ;
528 -> 529 ;
530 [label="entropy = 0.0\nsamples = 2\nvalue = [0, 2]"] ;
529 -> 530 ;
531 [label="x[5] <= 0.91\nentropy = 0.258\nsamples = 23\nvalue = [22, 1]"] ;
529 -> 531 ;
532 [label="entropy = 0.0\nsamples = 22\nvalue = [22, 0]"] ;
531 -> 532 ;
533 [label="entropy = 0.0\nsamples = 1\nvalue = [0, 1]"] ;
531 -> 533 ;
534 [label="x[4] <= 1.38\nentropy = 0.954\nsamples = 24\nvalue = [15, 9]"] ;
528 -> 534 ;
535 [label="entropy = 0.0\nsamples = 4\nvalue = [0, 4]"] ;
534 -> 535 ;
536 [label="x[4] <= 1.553\nentropy = 0.811\nsamples = 20\nvalue = [15, 5]"] ;
534 -> 536 ;
537 [label="x[5] <= 0.464\nentropy = 0.94\nsamples = 14\nvalue = [9, 5]"] ;
536 -> 537 ;
538 [label="entropy = 0.0\nsamples = 4\nvalue = [4, 0]"] ;
537 -> 538 ;
539 [label="x[0] <= -0.243\nentropy = 1.0\nsamples = 10\nvalue = [5, 5]"] ;
537 -> 539 ;
540 [label="x[0] <= -1.128\nentropy = 0.722\nsamples = 5\nvalue = [4, 1]"] ;
539 -> 540 ;
541 [label="entropy = 0.0\nsamples = 1\nvalue = [0, 1]"] ;
540 -> 541 ;
542 [label="entropy = 0.0\nsamples = 4\nvalue = [4, 0]"] ;
540 -> 542 ;
543 [label="x[9] <= 1.016\nentropy = 0.722\nsamples = 5\nvalue = [1, 4]"] ;
539 -> 543 ;
544 [label="entropy = 0.0\nsamples = 1\nvalue = [1, 0]"] ;
543 -> 544 ;
545 [label="entropy = 0.0\nsamples = 4\nvalue = [0, 4]"] ;
543 -> 545 ;
546 [label="entropy = 0.0\nsamples = 6\nvalue = [6, 0]"] ;
536 -> 546 ;
547 [label="entropy = 0.0\nsamples = 22\nvalue = [22, 0]"] ;
525 -> 547 ;
548 [label="x[2] <= -0.092\nentropy = 0.99\nsamples = 52\nvalue = [29, 23]"] ;
332 -> 548 ;
549 [label="x[9] <= -0.934\nentropy = 0.85\nsamples = 29\nvalue = [8, 21]"] ;
548 -> 549 ;
550 [label="entropy = 0.0\nsamples = 3\nvalue = [3, 0]"] ;
549 -> 550 ;
551 [label="x[4] <= -1.342\nentropy = 0.706\nsamples = 26\nvalue = [5, 21]"] ;
549 -> 551 ;
552 [label="x[5] <= 1.961\nentropy = 0.811\nsamples = 4\nvalue = [3, 1]"] ;
551 -> 552 ;
553 [label="entropy = 0.0\nsamples = 3\nvalue = [3, 0]"] ;
552 -> 553 ;
554 [label="entropy = 0.0\nsamples = 1\nvalue = [0, 1]"] ;
552 -> 554 ;
555 [label="x[9] <= 0.297\nentropy = 0.439\nsamples = 22\nvalue = [2, 20]"] ;
551 -> 555 ;
556 [label="entropy = 0.0\nsamples = 17\nvalue = [0, 17]"] ;
555 -> 556 ;
557 [label="x[9] <= 1.114\nentropy = 0.971\nsamples = 5\nvalue = [2, 3]"] ;
555 -> 557 ;
558 [label="x[4] <= -0.983\nentropy = 0.918\nsamples = 3\nvalue = [2, 1]"] ;
557 -> 558 ;
559 [label="entropy = 0.0\nsamples = 1\nvalue = [0, 1]"] ;
558 -> 559 ;
560 [label="entropy = 0.0\nsamples = 2\nvalue = [2, 0]"] ;
558 -> 560 ;
561 [label="entropy = 0.0\nsamples = 2\nvalue = [0, 2]"] ;
557 -> 561 ;
562 [label="x[3] <= -0.85\nentropy = 0.426\nsamples = 23\nvalue = [21, 2]"] ;
548 -> 562 ;
563 [label="x[3] <= -1.088\nentropy = 0.764\nsamples = 9\nvalue = [7, 2]"] ;
562 -> 563 ;
564 [label="entropy = 0.0\nsamples = 6\nvalue = [6, 0]"] ;
563 -> 564 ;
565 [label="x[4] <= 0.342\nentropy = 0.918\nsamples = 3\nvalue = [1, 2]"] ;
563 -> 565 ;
566 [label="entropy = 0.0\nsamples = 1\nvalue = [1, 0]"] ;
565 -> 566 ;
567 [label="entropy = 0.0\nsamples = 2\nvalue = [0, 2]"] ;
565 -> 567 ;
568 [label="entropy = 0.0\nsamples = 14\nvalue = [14, 0]"] ;
562 -> 568 ;
569 [label="entropy = 0.0\nsamples = 9\nvalue = [0, 9]"] ;
331 -> 569 ;
570 [label="x[3] <= -0.279\nentropy = 0.929\nsamples = 714\nvalue = [468, 246]"] ;
330 -> 570 ;
571 [label="entropy = 0.0\nsamples = 17\nvalue = [0, 17]"] ;
570 -> 571 ;
572 [label="x[3] <= -0.085\nentropy = 0.913\nsamples = 697\nvalue = [468, 229]"] ;
570 -> 572 ;
573 [label="x[3] <= -0.09\nentropy = 0.802\nsamples = 336\nvalue = [254, 82]"] ;
572 -> 573 ;
574 [label="x[3] <= -0.182\nentropy = 0.897\nsamples = 230\nvalue = [158, 72]"] ;
573 -> 574 ;
575 [label="x[3] <= -0.183\nentropy = 0.749\nsamples = 201\nvalue = [158, 43]"] ;
574 -> 575 ;
576 [label="x[3] <= -0.275\nentropy = 0.89\nsamples = 117\nvalue = [81, 36]"] ;
575 -> 576 ;
577 [label="x[5] <= 1.597\nentropy = 0.666\nsamples = 98\nvalue = [81, 17]"] ;
576 -> 577 ;
578 [label="x[0] <= -1.496\nentropy = 0.58\nsamples = 94\nvalue = [81, 13]"] ;
577 -> 578 ;
579 [label="entropy = 0.0\nsamples = 2\nvalue = [0, 2]"] ;
578 -> 579 ;
580 [label="x[5] <= 0.671\nentropy = 0.528\nsamples = 92\nvalue = [81, 11]"] ;
578 -> 580 ;
581 [label="entropy = 0.0\nsamples = 38\nvalue = [38, 0]"] ;
580 -> 581 ;
582 [label="x[1] <= -0.848\nentropy = 0.729\nsamples = 54\nvalue = [43, 11]"] ;
580 -> 582 ;
583 [label="x[7] <= -0.451\nentropy = 0.485\nsamples = 38\nvalue = [34, 4]"] ;
582 -> 583 ;
584 [label="entropy = 0.0\nsamples = 11\nvalue = [11, 0]"] ;
583 -> 584 ;
585 [label="x[9] <= 0.76\nentropy = 0.605\nsamples = 27\nvalue = [23, 4]"] ;
583 -> 585 ;
586 [label="x[0] <= 1.056\nentropy = 0.426\nsamples = 23\nvalue = [21, 2]"] ;
585 -> 586 ;
587 [label="entropy = 0.0\nsamples = 16\nvalue = [16, 0]"] ;
586 -> 587 ;
588 [label="x[4] <= 0.342\nentropy = 0.863\nsamples = 7\nvalue = [5, 2]"] ;
586 -> 588 ;
589 [label="entropy = 0.0\nsamples = 4\nvalue = [4, 0]"] ;
588 -> 589 ;
590 [label="x[4] <= 1.207\nentropy = 0.918\nsamples = 3\nvalue = [1, 2]"] ;
588 -> 590 ;
591 [label="entropy = 0.0\nsamples = 2\nvalue = [0, 2]"] ;
590 -> 591 ;
592 [label="entropy = 0.0\nsamples = 1\nvalue = [1, 0]"] ;
590 -> 592 ;
593 [label="x[0] <= -0.072\nentropy = 1.0\nsamples = 4\nvalue = [2, 2]"] ;
585 -> 593 ;
594 [label="entropy = 0.0\nsamples = 2\nvalue = [0, 2]"] ;
593 -> 594 ;
595 [label="entropy = 0.0\nsamples = 2\nvalue = [2, 0]"] ;
593 -> 595 ;
596 [label="x[9] <= -0.428\nentropy = 0.989\nsamples = 16\nvalue = [9, 7]"] ;
582 -> 596 ;
597 [label="x[4] <= 0.515\nentropy = 0.65\nsamples = 6\nvalue = [1, 5]"] ;
596 -> 597 ;
598 [label="entropy = 0.0\nsamples = 1\nvalue = [1, 0]"] ;
597 -> 598 ;
599 [label="entropy = 0.0\nsamples = 5\nvalue = [0, 5]"] ;
597 -> 599 ;
600 [label="x[5] <= 0.927\nentropy = 0.722\nsamples = 10\nvalue = [8, 2]"] ;
596 -> 600 ;
601 [label="x[4] <= 0.342\nentropy = 0.918\nsamples = 3\nvalue = [1, 2]"] ;
600 -> 601 ;
602 [label="entropy = 0.0\nsamples = 2\nvalue = [0, 2]"] ;
601 -> 602 ;
603 [label="entropy = 0.0\nsamples = 1\nvalue = [1, 0]"] ;
601 -> 603 ;
604 [label="entropy = 0.0\nsamples = 7\nvalue = [7, 0]"] ;
600 -> 604 ;
605 [label="entropy = 0.0\nsamples = 4\nvalue = [0, 4]"] ;
577 -> 605 ;
606 [label="entropy = 0.0\nsamples = 19\nvalue = [0, 19]"] ;
576 -> 606 ;
607 [label="x[0] <= -0.492\nentropy = 0.414\nsamples = 84\nvalue = [77, 7]"] ;
575 -> 607 ;
608 [label="entropy = 0.0\nsamples = 27\nvalue = [27, 0]"] ;
607 -> 608 ;
609 [label="x[0] <= 0.612\nentropy = 0.537\nsamples = 57\nvalue = [50, 7]"] ;
607 -> 609 ;
610 [label="x[9] <= 1.18\nentropy = 0.669\nsamples = 40\nvalue = [33, 7]"] ;
609 -> 610 ;
611 [label="x[4] <= 1.428\nentropy = 0.513\nsamples = 35\nvalue = [31, 4]"] ;
610 -> 611 ;
612 [label="x[4] <= -1.214\nentropy = 0.337\nsamples = 32\nvalue = [30, 2]"] ;
611 -> 612 ;
613 [label="x[9] <= -0.607\nentropy = 0.918\nsamples = 6\nvalue = [4, 2]"] ;
612 -> 613 ;
614 [label="x[5] <= 0.804\nentropy = 0.918\nsamples = 3\nvalue = [1, 2]"] ;
613 -> 614 ;
615 [label="entropy = 0.0\nsamples = 1\nvalue = [1, 0]"] ;
614 -> 615 ;
616 [label="entropy = 0.0\nsamples = 2\nvalue = [0, 2]"] ;
614 -> 616 ;
617 [label="entropy = 0.0\nsamples = 3\nvalue = [3, 0]"] ;
613 -> 617 ;
618 [label="entropy = 0.0\nsamples = 26\nvalue = [26, 0]"] ;
612 -> 618 ;
619 [label="x[5] <= 0.487\nentropy = 0.918\nsamples = 3\nvalue = [1, 2]"] ;
611 -> 619 ;
620 [label="entropy = 0.0\nsamples = 1\nvalue = [1, 0]"] ;
619 -> 620 ;
621 [label="entropy = 0.0\nsamples = 2\nvalue = [0, 2]"] ;
619 -> 621 ;
622 [label="x[9] <= 1.449\nentropy = 0.971\nsamples = 5\nvalue = [2, 3]"] ;
610 -> 622 ;
623 [label="entropy = 0.0\nsamples = 2\nvalue = [0, 2]"] ;
622 -> 623 ;
624 [label="x[9] <= 1.67\nentropy = 0.918\nsamples = 3\nvalue = [2, 1]"] ;
622 -> 624 ;
625 [label="entropy = 0.0\nsamples = 2\nvalue = [2, 0]"] ;
624 -> 625 ;
626 [label="entropy = 0.0\nsamples = 1\nvalue = [0, 1]"] ;
624 -> 626 ;
627 [label="entropy = 0.0\nsamples = 17\nvalue = [17, 0]"] ;
609 -> 627 ;
628 [label="entropy = 0.0\nsamples = 29\nvalue = [0, 29]"] ;
574 -> 628 ;
629 [label="x[9] <= -0.461\nentropy = 0.451\nsamples = 106\nvalue = [96, 10]"] ;
573 -> 629 ;
630 [label="x[0] <= -0.942\nentropy = 0.797\nsamples = 29\nvalue = [22, 7]"] ;
629 -> 630 ;
631 [label="x[9] <= -0.994\nentropy = 0.811\nsamples = 4\nvalue = [1, 3]"] ;
630 -> 631 ;
632 [label="x[5] <= 0.674\nentropy = 1.0\nsamples = 2\nvalue = [1, 1]"] ;
631 -> 632 ;
633 [label="entropy = 0.0\nsamples = 1\nvalue = [0, 1]"] ;
632 -> 633 ;
634 [label="entropy = 0.0\nsamples = 1\nvalue = [1, 0]"] ;
632 -> 634 ;
635 [label="entropy = 0.0\nsamples = 2\nvalue = [0, 2]"] ;
631 -> 635 ;
636 [label="x[1] <= -0.301\nentropy = 0.634\nsamples = 25\nvalue = [21, 4]"] ;
630 -> 636 ;
637 [label="x[9] <= -1.617\nentropy = 0.837\nsamples = 15\nvalue = [11, 4]"] ;
636 -> 637 ;
638 [label="entropy = 0.0\nsamples = 1\nvalue = [0, 1]"] ;
637 -> 638 ;
639 [label="x[4] <= -0.868\nentropy = 0.75\nsamples = 14\nvalue = [11, 3]"] ;
637 -> 639 ;
640 [label="x[5] <= 0.759\nentropy = 0.918\nsamples = 3\nvalue = [1, 2]"] ;
639 -> 640 ;
641 [label="entropy = 0.0\nsamples = 2\nvalue = [0, 2]"] ;
640 -> 641 ;
642 [label="entropy = 0.0\nsamples = 1\nvalue = [1, 0]"] ;
640 -> 642 ;
643 [label="x[9] <= -0.494\nentropy = 0.439\nsamples = 11\nvalue = [10, 1]"] ;
639 -> 643 ;
644 [label="entropy = 0.0\nsamples = 10\nvalue = [10, 0]"] ;
643 -> 644 ;
645 [label="entropy = 0.0\nsamples = 1\nvalue = [0, 1]"] ;
643 -> 645 ;
646 [label="entropy = 0.0\nsamples = 10\nvalue = [10, 0]"] ;
636 -> 646 ;
647 [label="x[5] <= 1.133\nentropy = 0.238\nsamples = 77\nvalue = [74, 3]"] ;
629 -> 647 ;
648 [label="x[0] <= -1.268\nentropy = 0.115\nsamples = 65\nvalue = [64, 1]"] ;
647 -> 648 ;
649 [label="x[0] <= -1.351\nentropy = 0.65\nsamples = 6\nvalue = [5, 1]"] ;
648 -> 649 ;
650 [label="entropy = 0.0\nsamples = 5\nvalue = [5, 0]"] ;
649 -> 650 ;
651 [label="entropy = 0.0\nsamples = 1\nvalue = [0, 1]"] ;
649 -> 651 ;
652 [label="entropy = 0.0\nsamples = 59\nvalue = [59, 0]"] ;
648 -> 652 ;
653 [label="x[5] <= 1.153\nentropy = 0.65\nsamples = 12\nvalue = [10, 2]"] ;
647 -> 653 ;
654 [label="entropy = 0.0\nsamples = 1\nvalue = [0, 1]"] ;
653 -> 654 ;
655 [label="x[9] <= -0.149\nentropy = 0.439\nsamples = 11\nvalue = [10, 1]"] ;
653 -> 655 ;
656 [label="x[0] <= 1.107\nentropy = 0.918\nsamples = 3\nvalue = [2, 1]"] ;
655 -> 656 ;
657 [label="entropy = 0.0\nsamples = 2\nvalue = [2, 0]"] ;
656 -> 657 ;
658 [label="entropy = 0.0\nsamples = 1\nvalue = [0, 1]"] ;
656 -> 658 ;
659 [label="entropy = 0.0\nsamples = 8\nvalue = [8, 0]"] ;
655 -> 659 ;
660 [label="x[3] <= 0.003\nentropy = 0.975\nsamples = 361\nvalue = [214, 147]"] ;
572 -> 660 ;
661 [label="entropy = 0.0\nsamples = 37\nvalue = [0, 37]"] ;
660 -> 661 ;
662 [label="x[9] <= 0.124\nentropy = 0.924\nsamples = 324\nvalue = [214, 110]"] ;
660 -> 662 ;
663 [label="x[1] <= 0.276\nentropy = 0.729\nsamples = 162\nvalue = [129, 33]"] ;
662 -> 663 ;
664 [label="x[3] <= 0.197\nentropy = 0.835\nsamples = 113\nvalue = [83, 30]"] ;
663 -> 664 ;
665 [label="x[3] <= 0.108\nentropy = 0.91\nsamples = 86\nvalue = [58, 28]"] ;
664 -> 665 ;
666 [label="x[5] <= 0.34\nentropy = 0.772\nsamples = 75\nvalue = [58, 17]"] ;
665 -> 666 ;
667 [label="entropy = 0.0\nsamples = 13\nvalue = [13, 0]"] ;
666 -> 667 ;
668 [label="x[0] <= -0.248\nentropy = 0.847\nsamples = 62\nvalue = [45, 17]"] ;
666 -> 668 ;
669 [label="x[0] <= -1.082\nentropy = 0.454\nsamples = 21\nvalue = [19, 2]"] ;
668 -> 669 ;
670 [label="x[9] <= -0.553\nentropy = 0.811\nsamples = 8\nvalue = [6, 2]"] ;
669 -> 670 ;
671 [label="x[5] <= 0.736\nentropy = 1.0\nsamples = 4\nvalue = [2, 2]"] ;
670 -> 671 ;
672 [label="entropy = 0.0\nsamples = 2\nvalue = [2, 0]"] ;
671 -> 672 ;
673 [label="entropy = 0.0\nsamples = 2\nvalue = [0, 2]"] ;
671 -> 673 ;
674 [label="entropy = 0.0\nsamples = 4\nvalue = [4, 0]"] ;
670 -> 674 ;
675 [label="entropy = 0.0\nsamples = 13\nvalue = [13, 0]"] ;
669 -> 675 ;
676 [label="x[0] <= -0.16\nentropy = 0.947\nsamples = 41\nvalue = [26, 15]"] ;
668 -> 676 ;
677 [label="entropy = 0.0\nsamples = 4\nvalue = [0, 4]"] ;
676 -> 677 ;
678 [label="x[7] <= -0.451\nentropy = 0.878\nsamples = 37\nvalue = [26, 11]"] ;
676 -> 678 ;
679 [label="entropy = 0.0\nsamples = 7\nvalue = [7, 0]"] ;
678 -> 679 ;
680 [label="x[4] <= 1.425\nentropy = 0.948\nsamples = 30\nvalue = [19, 11]"] ;
678 -> 680 ;
681 [label="x[0] <= 0.994\nentropy = 0.906\nsamples = 28\nvalue = [19, 9]"] ;
680 -> 681 ;
682 [label="x[4] <= -0.868\nentropy = 0.592\nsamples = 14\nvalue = [12, 2]"] ;
681 -> 682 ;
683 [label="entropy = 0.0\nsamples = 2\nvalue = [0, 2]"] ;
682 -> 683 ;
684 [label="entropy = 0.0\nsamples = 12\nvalue = [12, 0]"] ;
682 -> 684 ;
685 [label="x[0] <= 2.034\nentropy = 1.0\nsamples = 14\nvalue = [7, 7]"] ;
681 -> 685 ;
686 [label="x[5] <= 0.769\nentropy = 0.946\nsamples = 11\nvalue = [4, 7]"] ;
685 -> 686 ;
687 [label="entropy = 0.0\nsamples = 5\nvalue = [0, 5]"] ;
686 -> 687 ;
688 [label="x[3] <= 0.056\nentropy = 0.918\nsamples = 6\nvalue = [4, 2]"] ;
686 -> 688 ;
689 [label="x[9] <= -1.096\nentropy = 0.918\nsamples = 3\nvalue = [1, 2]"] ;
688 -> 689 ;
690 [label="entropy = 0.0\nsamples = 1\nvalue = [1, 0]"] ;
689 -> 690 ;
691 [label="entropy = 0.0\nsamples = 2\nvalue = [0, 2]"] ;
689 -> 691 ;
692 [label="entropy = 0.0\nsamples = 3\nvalue = [3, 0]"] ;
688 -> 692 ;
693 [label="entropy = 0.0\nsamples = 3\nvalue = [3, 0]"] ;
685 -> 693 ;
694 [label="entropy = 0.0\nsamples = 2\nvalue = [0, 2]"] ;
680 -> 694 ;
695 [label="entropy = 0.0\nsamples = 11\nvalue = [0, 11]"] ;
665 -> 695 ;
696 [label="x[5] <= 0.029\nentropy = 0.381\nsamples = 27\nvalue = [25, 2]"] ;
664 -> 696 ;
697 [label="entropy = 0.0\nsamples = 1\nvalue = [0, 1]"] ;
696 -> 697 ;
698 [label="x[9] <= 0.004\nentropy = 0.235\nsamples = 26\nvalue = [25, 1]"] ;
696 -> 698 ;
699 [label="entropy = 0.0\nsamples = 21\nvalue = [21, 0]"] ;
698 -> 699 ;
700 [label="x[9] <= 0.023\nentropy = 0.722\nsamples = 5\nvalue = [4, 1]"] ;
698 -> 700 ;
701 [label="entropy = 0.0\nsamples = 1\nvalue = [0, 1]"] ;
700 -> 701 ;
702 [label="entropy = 0.0\nsamples = 4\nvalue = [4, 0]"] ;
700 -> 702 ;
703 [label="x[8] <= -0.029\nentropy = 0.332\nsamples = 49\nvalue = [46, 3]"] ;
663 -> 703 ;
704 [label="x[5] <= 1.396\nentropy = 0.575\nsamples = 22\nvalue = [19, 3]"] ;
703 -> 704 ;
705 [label="x[5] <= 0.48\nentropy = 0.454\nsamples = 21\nvalue = [19, 2]"] ;
704 -> 705 ;
706 [label="x[0] <= 0.357\nentropy = 0.918\nsamples = 6\nvalue = [4, 2]"] ;
705 -> 706 ;
707 [label="entropy = 0.0\nsamples = 2\nvalue = [0, 2]"] ;
706 -> 707 ;
708 [label="entropy = 0.0\nsamples = 4\nvalue = [4, 0]"] ;
706 -> 708 ;
709 [label="entropy = 0.0\nsamples = 15\nvalue = [15, 0]"] ;
705 -> 709 ;
710 [label="entropy = 0.0\nsamples = 1\nvalue = [0, 1]"] ;
704 -> 710 ;
711 [label="entropy = 0.0\nsamples = 27\nvalue = [27, 0]"] ;
703 -> 711 ;
712 [label="x[3] <= 0.009\nentropy = 0.998\nsamples = 162\nvalue = [85, 77]"] ;
662 -> 712 ;
713 [label="x[2] <= -0.092\nentropy = 0.619\nsamples = 26\nvalue = [22, 4]"] ;
712 -> 713 ;
714 [label="x[5] <= 0.954\nentropy = 0.811\nsamples = 16\nvalue = [12, 4]"] ;
713 -> 714 ;
715 [label="x[9] <= 0.158\nentropy = 0.439\nsamples = 11\nvalue = [10, 1]"] ;
714 -> 715 ;
716 [label="entropy = 0.0\nsamples = 1\nvalue = [0, 1]"] ;
715 -> 716 ;
717 [label="entropy = 0.0\nsamples = 10\nvalue = [10, 0]"] ;
715 -> 717 ;
718 [label="x[8] <= -0.029\nentropy = 0.971\nsamples = 5\nvalue = [2, 3]"] ;
714 -> 718 ;
719 [label="entropy = 0.0\nsamples = 3\nvalue = [0, 3]"] ;
718 -> 719 ;
720 [label="entropy = 0.0\nsamples = 2\nvalue = [2, 0]"] ;
718 -> 720 ;
721 [label="entropy = 0.0\nsamples = 10\nvalue = [10, 0]"] ;
713 -> 721 ;
722 [label="x[3] <= 0.103\nentropy = 0.996\nsamples = 136\nvalue = [63, 73]"] ;
712 -> 722 ;
723 [label="entropy = 0.0\nsamples = 16\nvalue = [0, 16]"] ;
722 -> 723 ;
724 [label="x[3] <= 0.198\nentropy = 0.998\nsamples = 120\nvalue = [63, 57]"] ;
722 -> 724 ;
725 [label="x[3] <= 0.106\nentropy = 0.993\nsamples = 91\nvalue = [41, 50]"] ;
724 -> 725 ;
726 [label="x[9] <= 1.551\nentropy = 0.95\nsamples = 65\nvalue = [41, 24]"] ;
725 -> 726 ;
727 [label="x[0] <= 1.097\nentropy = 0.982\nsamples = 57\nvalue = [33, 24]"] ;
726 -> 727 ;
728 [label="x[5] <= 0.057\nentropy = 0.998\nsamples = 51\nvalue = [27, 24]"] ;
727 -> 728 ;
729 [label="entropy = 0.0\nsamples = 4\nvalue = [0, 4]"] ;
728 -> 729 ;
730 [label="x[1] <= 0.176\nentropy = 0.984\nsamples = 47\nvalue = [27, 20]"] ;
728 -> 730 ;
731 [label="x[0] <= 0.023\nentropy = 0.996\nsamples = 28\nvalue = [13, 15]"] ;
730 -> 731 ;
732 [label="x[5] <= 0.151\nentropy = 0.9\nsamples = 19\nvalue = [6, 13]"] ;
731 -> 732 ;
733 [label="entropy = 0.0\nsamples = 2\nvalue = [2, 0]"] ;
732 -> 733 ;
734 [label="x[9] <= 1.273\nentropy = 0.787\nsamples = 17\nvalue = [4, 13]"] ;
732 -> 734 ;
735 [label="x[9] <= 0.455\nentropy = 0.391\nsamples = 13\nvalue = [1, 12]"] ;
734 -> 735 ;
736 [label="x[5] <= 0.457\nentropy = 1.0\nsamples = 2\nvalue = [1, 1]"] ;
735 -> 736 ;
737 [label="entropy = 0.0\nsamples = 1\nvalue = [0, 1]"] ;
736 -> 737 ;
738 [label="entropy = 0.0\nsamples = 1\nvalue = [1, 0]"] ;
736 -> 738 ;
739 [label="entropy = 0.0\nsamples = 11\nvalue = [0, 11]"] ;
735 -> 739 ;
740 [label="x[4] <= 1.207\nentropy = 0.811\nsamples = 4\nvalue = [3, 1]"] ;
734 -> 740 ;
741 [label="entropy = 0.0\nsamples = 3\nvalue = [3, 0]"] ;
740 -> 741 ;
742 [label="entropy = 0.0\nsamples = 1\nvalue = [0, 1]"] ;
740 -> 742 ;
743 [label="x[4] <= 0.17\nentropy = 0.764\nsamples = 9\nvalue = [7, 2]"] ;
731 -> 743 ;
744 [label="x[9] <= 0.859\nentropy = 1.0\nsamples = 4\nvalue = [2, 2]"] ;
743 -> 744 ;
745 [label="entropy = 0.0\nsamples = 2\nvalue = [2, 0]"] ;
744 -> 745 ;
746 [label="entropy = 0.0\nsamples = 2\nvalue = [0, 2]"] ;
744 -> 746 ;
747 [label="entropy = 0.0\nsamples = 5\nvalue = [5, 0]"] ;
743 -> 747 ;
748 [label="x[5] <= 0.174\nentropy = 0.831\nsamples = 19\nvalue = [14, 5]"] ;
730 -> 748 ;
749 [label="entropy = 0.0\nsamples = 2\nvalue = [0, 2]"] ;
748 -> 749 ;
750 [label="x[0] <= 0.31\nentropy = 0.672\nsamples = 17\nvalue = [14, 3]"] ;
748 -> 750 ;
751 [label="entropy = 0.0\nsamples = 11\nvalue = [11, 0]"] ;
750 -> 751 ;
752 [label="x[4] <= -0.522\nentropy = 1.0\nsamples = 6\nvalue = [3, 3]"] ;
750 -> 752 ;
753 [label="entropy = 0.0\nsamples = 3\nvalue = [3, 0]"] ;
752 -> 753 ;
754 [label="entropy = 0.0\nsamples = 3\nvalue = [0, 3]"] ;
752 -> 754 ;
755 [label="entropy = 0.0\nsamples = 6\nvalue = [6, 0]"] ;
727 -> 755 ;
756 [label="entropy = 0.0\nsamples = 8\nvalue = [8, 0]"] ;
726 -> 756 ;
757 [label="entropy = 0.0\nsamples = 26\nvalue = [0, 26]"] ;
725 -> 757 ;
758 [label="x[0] <= -0.404\nentropy = 0.797\nsamples = 29\nvalue = [22, 7]"] ;
724 -> 758 ;
759 [label="x[9] <= 1.415\nentropy = 0.996\nsamples = 13\nvalue = [7, 6]"] ;
758 -> 759 ;
760 [label="x[1] <= -0.301\nentropy = 0.881\nsamples = 10\nvalue = [7, 3]"] ;
759 -> 760 ;
761 [label="x[0] <= -1.314\nentropy = 1.0\nsamples = 6\nvalue = [3, 3]"] ;
760 -> 761 ;
762 [label="entropy = 0.0\nsamples = 2\nvalue = [2, 0]"] ;
761 -> 762 ;
763 [label="x[4] <= 1.314\nentropy = 0.811\nsamples = 4\nvalue = [1, 3]"] ;
761 -> 763 ;
764 [label="entropy = 0.0\nsamples = 2\nvalue = [0, 2]"] ;
763 -> 764 ;
765 [label="x[9] <= 0.667\nentropy = 1.0\nsamples = 2\nvalue = [1, 1]"] ;
763 -> 765 ;
766 [label="entropy = 0.0\nsamples = 1\nvalue = [1, 0]"] ;
765 -> 766 ;
767 [label="entropy = 0.0\nsamples = 1\nvalue = [0, 1]"] ;
765 -> 767 ;
768 [label="entropy = 0.0\nsamples = 4\nvalue = [4, 0]"] ;
760 -> 768 ;
769 [label="entropy = 0.0\nsamples = 3\nvalue = [0, 3]"] ;
759 -> 769 ;
770 [label="x[5] <= 0.155\nentropy = 0.337\nsamples = 16\nvalue = [15, 1]"] ;
758 -> 770 ;
771 [label="entropy = 0.0\nsamples = 1\nvalue = [0, 1]"] ;
770 -> 771 ;
772 [label="entropy = 0.0\nsamples = 15\nvalue = [15, 0]"] ;
770 -> 772 ;
773 [label="x[5] <= 0.062\nentropy = 0.969\nsamples = 1076\nvalue = [427, 649]"] ;
3 -> 773 ;
774 [label="x[1] <= 0.907\nentropy = 0.358\nsamples = 59\nvalue = [55, 4]"] ;
773 -> 774 ;
775 [label="entropy = 0.0\nsamples = 1\nvalue = [0, 1]"] ;
774 -> 775 ;
776 [label="x[5] <= 0.005\nentropy = 0.294\nsamples = 58\nvalue = [55, 3]"] ;
774 -> 776 ;
777 [label="entropy = 0.0\nsamples = 41\nvalue = [41, 0]"] ;
776 -> 777 ;
778 [label="x[5] <= 0.013\nentropy = 0.672\nsamples = 17\nvalue = [14, 3]"] ;
776 -> 778 ;
779 [label="x[3] <= -0.325\nentropy = 0.918\nsamples = 3\nvalue = [1, 2]"] ;
778 -> 779 ;
780 [label="entropy = 0.0\nsamples = 1\nvalue = [1, 0]"] ;
779 -> 780 ;
781 [label="entropy = 0.0\nsamples = 2\nvalue = [0, 2]"] ;
779 -> 781 ;
782 [label="x[3] <= -0.898\nentropy = 0.371\nsamples = 14\nvalue = [13, 1]"] ;
778 -> 782 ;
783 [label="x[4] <= 0.17\nentropy = 0.918\nsamples = 3\nvalue = [2, 1]"] ;
782 -> 783 ;
784 [label="entropy = 0.0\nsamples = 1\nvalue = [0, 1]"] ;
783 -> 784 ;
785 [label="entropy = 0.0\nsamples = 2\nvalue = [2, 0]"] ;
783 -> 785 ;
786 [label="entropy = 0.0\nsamples = 11\nvalue = [11, 0]"] ;
782 -> 786 ;
787 [label="x[5] <= 1.111\nentropy = 0.947\nsamples = 1017\nvalue = [372, 645]"] ;
773 -> 787 ;
788 [label="x[3] <= -0.561\nentropy = 0.902\nsamples = 893\nvalue = [284, 609]"] ;
787 -> 788 ;
789 [label="x[1] <= 1.506\nentropy = 0.996\nsamples = 307\nvalue = [142, 165]"] ;
788 -> 789 ;
790 [label="entropy = 0.0\nsamples = 18\nvalue = [0, 18]"] ;
789 -> 790 ;
791 [label="x[2] <= 0.7\nentropy = 1.0\nsamples = 289\nvalue = [142, 147]"] ;
789 -> 791 ;
792 [label="x[5] <= 1.06\nentropy = 0.954\nsamples = 155\nvalue = [58, 97]"] ;
791 -> 792 ;
793 [label="x[4] <= 1.553\nentropy = 0.941\nsamples = 151\nvalue = [54, 97]"] ;
792 -> 793 ;
794 [label="x[4] <= -0.335\nentropy = 0.918\nsamples = 144\nvalue = [48, 96]"] ;
793 -> 794 ;
795 [label="x[0] <= -0.352\nentropy = 0.995\nsamples = 63\nvalue = [29, 34]"] ;
794 -> 795 ;
796 [label="x[5] <= 0.659\nentropy = 0.684\nsamples = 22\nvalue = [4, 18]"] ;
795 -> 796 ;
797 [label="x[3] <= -0.707\nentropy = 0.297\nsamples = 19\nvalue = [1, 18]"] ;
796 -> 797 ;
798 [label="entropy = 0.0\nsamples = 16\nvalue = [0, 16]"] ;
797 -> 798 ;
799 [label="x[3] <= -0.636\nentropy = 0.918\nsamples = 3\nvalue = [1, 2]"] ;
797 -> 799 ;
800 [label="entropy = 0.0\nsamples = 1\nvalue = [1, 0]"] ;
799 -> 800 ;
801 [label="entropy = 0.0\nsamples = 2\nvalue = [0, 2]"] ;
799 -> 801 ;
802 [label="entropy = 0.0\nsamples = 3\nvalue = [3, 0]"] ;
796 -> 802 ;
803 [label="x[9] <= 0.224\nentropy = 0.965\nsamples = 41\nvalue = [25, 16]"] ;
795 -> 803 ;
804 [label="x[8] <= -0.029\nentropy = 0.991\nsamples = 27\nvalue = [12, 15]"] ;
803 -> 804 ;
805 [label="x[0] <= 0.972\nentropy = 0.811\nsamples = 20\nvalue = [5, 15]"] ;
804 -> 805 ;
806 [label="x[9] <= -0.959\nentropy = 0.98\nsamples = 12\nvalue = [5, 7]"] ;
805 -> 806 ;
807 [label="entropy = 0.0\nsamples = 3\nvalue = [3, 0]"] ;
806 -> 807 ;
808 [label="x[4] <= -1.21\nentropy = 0.764\nsamples = 9\nvalue = [2, 7]"] ;
806 -> 808 ;
809 [label="entropy = 0.0\nsamples = 6\nvalue = [0, 6]"] ;
808 -> 809 ;
810 [label="x[7] <= -0.451\nentropy = 0.918\nsamples = 3\nvalue = [2, 1]"] ;
808 -> 810 ;
811 [label="entropy = 0.0\nsamples = 2\nvalue = [2, 0]"] ;
810 -> 811 ;
812 [label="entropy = 0.0\nsamples = 1\nvalue = [0, 1]"] ;
810 -> 812 ;
813 [label="entropy = 0.0\nsamples = 8\nvalue = [0, 8]"] ;
805 -> 813 ;
814 [label="entropy = 0.0\nsamples = 7\nvalue = [7, 0]"] ;
804 -> 814 ;
815 [label="x[5] <= 0.871\nentropy = 0.371\nsamples = 14\nvalue = [13, 1]"] ;
803 -> 815 ;
816 [label="entropy = 0.0\nsamples = 11\nvalue = [11, 0]"] ;
815 -> 816 ;
817 [label="x[0] <= -0.052\nentropy = 0.918\nsamples = 3\nvalue = [2, 1]"] ;
815 -> 817 ;
818 [label="entropy = 0.0\nsamples = 2\nvalue = [2, 0]"] ;
817 -> 818 ;
819 [label="entropy = 0.0\nsamples = 1\nvalue = [0, 1]"] ;
817 -> 819 ;
820 [label="x[0] <= 1.956\nentropy = 0.786\nsamples = 81\nvalue = [19, 62]"] ;
794 -> 820 ;
821 [label="x[0] <= -0.195\nentropy = 0.751\nsamples = 79\nvalue = [17, 62]"] ;
820 -> 821 ;
822 [label="x[5] <= 0.65\nentropy = 0.94\nsamples = 28\nvalue = [10, 18]"] ;
821 -> 822 ;
823 [label="x[0] <= -0.318\nentropy = 0.742\nsamples = 19\nvalue = [4, 15]"] ;
822 -> 823 ;
824 [label="entropy = 0.0\nsamples = 15\nvalue = [0, 15]"] ;
823 -> 824 ;
825 [label="entropy = 0.0\nsamples = 4\nvalue = [4, 0]"] ;
823 -> 825 ;
826 [label="x[0] <= -0.434\nentropy = 0.918\nsamples = 9\nvalue = [6, 3]"] ;
822 -> 826 ;
827 [label="entropy = 0.0\nsamples = 5\nvalue = [5, 0]"] ;
826 -> 827 ;
828 [label="x[3] <= -1.423\nentropy = 0.811\nsamples = 4\nvalue = [1, 3]"] ;
826 -> 828 ;
829 [label="entropy = 0.0\nsamples = 1\nvalue = [1, 0]"] ;
828 -> 829 ;
830 [label="entropy = 0.0\nsamples = 3\nvalue = [0, 3]"] ;
828 -> 830 ;
831 [label="x[9] <= 0.215\nentropy = 0.577\nsamples = 51\nvalue = [7, 44]"] ;
821 -> 831 ;
832 [label="x[0] <= 1.665\nentropy = 0.222\nsamples = 28\nvalue = [1, 27]"] ;
831 -> 832 ;
833 [label="entropy = 0.0\nsamples = 27\nvalue = [0, 27]"] ;
832 -> 833 ;
834 [label="entropy = 0.0\nsamples = 1\nvalue = [1, 0]"] ;
832 -> 834 ;
835 [label="x[9] <= 0.278\nentropy = 0.828\nsamples = 23\nvalue = [6, 17]"] ;
831 -> 835 ;
836 [label="entropy = 0.0\nsamples = 2\nvalue = [2, 0]"] ;
835 -> 836 ;
837 [label="x[9] <= 0.552\nentropy = 0.702\nsamples = 21\nvalue = [4, 17]"] ;
835 -> 837 ;
838 [label="entropy = 0.0\nsamples = 9\nvalue = [0, 9]"] ;
837 -> 838 ;
839 [label="x[3] <= -1.143\nentropy = 0.918\nsamples = 12\nvalue = [4, 8]"] ;
837 -> 839 ;
840 [label="entropy = 0.0\nsamples = 4\nvalue = [0, 4]"] ;
839 -> 840 ;
841 [label="x[3] <= -0.768\nentropy = 1.0\nsamples = 8\nvalue = [4, 4]"] ;
839 -> 841 ;
842 [label="x[0] <= 0.828\nentropy = 0.918\nsamples = 6\nvalue = [4, 2]"] ;
841 -> 842 ;
843 [label="entropy = 0.0\nsamples = 3\nvalue = [3, 0]"] ;
842 -> 843 ;
844 [label="x[5] <= 0.876\nentropy = 0.918\nsamples = 3\nvalue = [1, 2]"] ;
842 -> 844 ;
845 [label="entropy = 0.0\nsamples = 1\nvalue = [1, 0]"] ;
844 -> 845 ;
846 [label="entropy = 0.0\nsamples = 2\nvalue = [0, 2]"] ;
844 -> 846 ;
847 [label="entropy = 0.0\nsamples = 2\nvalue = [0, 2]"] ;
841 -> 847 ;
848 [label="entropy = 0.0\nsamples = 2\nvalue = [2, 0]"] ;
820 -> 848 ;
849 [label="x[9] <= -1.119\nentropy = 0.592\nsamples = 7\nvalue = [6, 1]"] ;
793 -> 849 ;
850 [label="entropy = 0.0\nsamples = 1\nvalue = [0, 1]"] ;
849 -> 850 ;
851 [label="entropy = 0.0\nsamples = 6\nvalue = [6, 0]"] ;
849 -> 851 ;
852 [label="entropy = 0.0\nsamples = 4\nvalue = [4, 0]"] ;
792 -> 852 ;
853 [label="x[8] <= -0.029\nentropy = 0.953\nsamples = 134\nvalue = [84, 50]"] ;
791 -> 853 ;
854 [label="x[3] <= -0.565\nentropy = 0.999\nsamples = 77\nvalue = [37, 40]"] ;
853 -> 854 ;
855 [label="x[5] <= 0.44\nentropy = 0.977\nsamples = 68\nvalue = [28, 40]"] ;
854 -> 855 ;
856 [label="entropy = 0.0\nsamples = 4\nvalue = [4, 0]"] ;
855 -> 856 ;
857 [label="x[4] <= -1.408\nentropy = 0.954\nsamples = 64\nvalue = [24, 40]"] ;
855 -> 857 ;
858 [label="entropy = 0.0\nsamples = 6\nvalue = [0, 6]"] ;
857 -> 858 ;
859 [label="x[0] <= -0.367\nentropy = 0.978\nsamples = 58\nvalue = [24, 34]"] ;
857 -> 859 ;
860 [label="x[5] <= 0.859\nentropy = 0.9\nsamples = 19\nvalue = [13, 6]"] ;
859 -> 860 ;
861 [label="entropy = 0.0\nsamples = 8\nvalue = [8, 0]"] ;
860 -> 861 ;
862 [label="x[3] <= -1.282\nentropy = 0.994\nsamples = 11\nvalue = [5, 6]"] ;
860 -> 862 ;
863 [label="entropy = 0.0\nsamples = 4\nvalue = [4, 0]"] ;
862 -> 863 ;
864 [label="x[0] <= -1.745\nentropy = 0.592\nsamples = 7\nvalue = [1, 6]"] ;
862 -> 864 ;
865 [label="entropy = 0.0\nsamples = 1\nvalue = [1, 0]"] ;
864 -> 865 ;
866 [label="entropy = 0.0\nsamples = 6\nvalue = [0, 6]"] ;
864 -> 866 ;
867 [label="x[9] <= -1.132\nentropy = 0.858\nsamples = 39\nvalue = [11, 28]"] ;
859 -> 867 ;
868 [label="entropy = 0.0\nsamples = 4\nvalue = [4, 0]"] ;
867 -> 868 ;
869 [label="x[5] <= 0.837\nentropy = 0.722\nsamples = 35\nvalue = [7, 28]"] ;
867 -> 869 ;
870 [label="x[0] <= 1.94\nentropy = 0.267\nsamples = 22\nvalue = [1, 21]"] ;
869 -> 870 ;
871 [label="entropy = 0.0\nsamples = 21\nvalue = [0, 21]"] ;
870 -> 871 ;
872 [label="entropy = 0.0\nsamples = 1\nvalue = [1, 0]"] ;
870 -> 872 ;
873 [label="x[4] <= -0.888\nentropy = 0.996\nsamples = 13\nvalue = [6, 7]"] ;
869 -> 873 ;
874 [label="entropy = 0.0\nsamples = 3\nvalue = [3, 0]"] ;
873 -> 874 ;
875 [label="x[4] <= 1.322\nentropy = 0.881\nsamples = 10\nvalue = [3, 7]"] ;
873 -> 875 ;
876 [label="x[9] <= -0.97\nentropy = 0.544\nsamples = 8\nvalue = [1, 7]"] ;
875 -> 876 ;
877 [label="entropy = 0.0\nsamples = 1\nvalue = [1, 0]"] ;
876 -> 877 ;
878 [label="entropy = 0.0\nsamples = 7\nvalue = [0, 7]"] ;
876 -> 878 ;
879 [label="entropy = 0.0\nsamples = 2\nvalue = [2, 0]"] ;
875 -> 879 ;
880 [label="entropy = 0.0\nsamples = 9\nvalue = [9, 0]"] ;
854 -> 880 ;
881 [label="x[5] <= 0.666\nentropy = 0.67\nsamples = 57\nvalue = [47, 10]"] ;
853 -> 881 ;
882 [label="x[3] <= -0.611\nentropy = 0.201\nsamples = 32\nvalue = [31, 1]"] ;
881 -> 882 ;
883 [label="entropy = 0.0\nsamples = 30\nvalue = [30, 0]"] ;
882 -> 883 ;
884 [label="x[9] <= 1.403\nentropy = 1.0\nsamples = 2\nvalue = [1, 1]"] ;
882 -> 884 ;
885 [label="entropy = 0.0\nsamples = 1\nvalue = [1, 0]"] ;
884 -> 885 ;
886 [label="entropy = 0.0\nsamples = 1\nvalue = [0, 1]"] ;
884 -> 886 ;
887 [label="x[4] <= 0.665\nentropy = 0.943\nsamples = 25\nvalue = [16, 9]"] ;
881 -> 887 ;
888 [label="x[3] <= -1.184\nentropy = 0.998\nsamples = 19\nvalue = [10, 9]"] ;
887 -> 888 ;
889 [label="entropy = 0.0\nsamples = 4\nvalue = [4, 0]"] ;
888 -> 889 ;
890 [label="x[0] <= 1.341\nentropy = 0.971\nsamples = 15\nvalue = [6, 9]"] ;
888 -> 890 ;
891 [label="x[9] <= 0.622\nentropy = 0.89\nsamples = 13\nvalue = [4, 9]"] ;
890 -> 891 ;
892 [label="x[4] <= -0.695\nentropy = 1.0\nsamples = 8\nvalue = [4, 4]"] ;
891 -> 892 ;
893 [label="entropy = 0.0\nsamples = 2\nvalue = [2, 0]"] ;
892 -> 893 ;
894 [label="x[9] <= -0.615\nentropy = 0.918\nsamples = 6\nvalue = [2, 4]"] ;
892 -> 894 ;
895 [label="entropy = 0.0\nsamples = 3\nvalue = [0, 3]"] ;
894 -> 895 ;
896 [label="x[3] <= -0.707\nentropy = 0.918\nsamples = 3\nvalue = [2, 1]"] ;
894 -> 896 ;
897 [label="entropy = 0.0\nsamples = 2\nvalue = [2, 0]"] ;
896 -> 897 ;
898 [label="entropy = 0.0\nsamples = 1\nvalue = [0, 1]"] ;
896 -> 898 ;
899 [label="entropy = 0.0\nsamples = 5\nvalue = [0, 5]"] ;
891 -> 899 ;
900 [label="entropy = 0.0\nsamples = 2\nvalue = [2, 0]"] ;
890 -> 900 ;
901 [label="entropy = 0.0\nsamples = 6\nvalue = [6, 0]"] ;
887 -> 901 ;
902 [label="x[3] <= 0.199\nentropy = 0.799\nsamples = 586\nvalue = [142, 444]"] ;
788 -> 902 ;
903 [label="x[3] <= 0.104\nentropy = 0.757\nsamples = 550\nvalue = [120, 430]"] ;
902 -> 903 ;
904 [label="x[5] <= 0.352\nentropy = 0.792\nsamples = 504\nvalue = [120, 384]"] ;
903 -> 904 ;
905 [label="x[1] <= 1.432\nentropy = 0.996\nsamples = 41\nvalue = [22, 19]"] ;
904 -> 905 ;
906 [label="entropy = 0.0\nsamples = 6\nvalue = [0, 6]"] ;
905 -> 906 ;
907 [label="x[0] <= -1.302\nentropy = 0.952\nsamples = 35\nvalue = [22, 13]"] ;
905 -> 907 ;
908 [label="x[9] <= 0.856\nentropy = 0.65\nsamples = 6\nvalue = [1, 5]"] ;
907 -> 908 ;
909 [label="entropy = 0.0\nsamples = 5\nvalue = [0, 5]"] ;
908 -> 909 ;
910 [label="entropy = 0.0\nsamples = 1\nvalue = [1, 0]"] ;
908 -> 910 ;
911 [label="x[0] <= 1.548\nentropy = 0.85\nsamples = 29\nvalue = [21, 8]"] ;
907 -> 911 ;
912 [label="x[9] <= 1.29\nentropy = 0.559\nsamples = 23\nvalue = [20, 3]"] ;
911 -> 912 ;
913 [label="entropy = 0.0\nsamples = 15\nvalue = [15, 0]"] ;
912 -> 913 ;
914 [label="x[0] <= 0.535\nentropy = 0.954\nsamples = 8\nvalue = [5, 3]"] ;
912 -> 914 ;
915 [label="x[9] <= 1.635\nentropy = 0.65\nsamples = 6\nvalue = [5, 1]"] ;
914 -> 915 ;
916 [label="entropy = 0.0\nsamples = 5\nvalue = [5, 0]"] ;
915 -> 916 ;
917 [label="entropy = 0.0\nsamples = 1\nvalue = [0, 1]"] ;
915 -> 917 ;
918 [label="entropy = 0.0\nsamples = 2\nvalue = [0, 2]"] ;
914 -> 918 ;
919 [label="x[2] <= -0.092\nentropy = 0.65\nsamples = 6\nvalue = [1, 5]"] ;
911 -> 919 ;
920 [label="entropy = 0.0\nsamples = 5\nvalue = [0, 5]"] ;
919 -> 920 ;
921 [label="entropy = 0.0\nsamples = 1\nvalue = [1, 0]"] ;
919 -> 921 ;
922 [label="x[3] <= -0.469\nentropy = 0.745\nsamples = 463\nvalue = [98, 365]"] ;
904 -> 922 ;
923 [label="entropy = 0.0\nsamples = 27\nvalue = [0, 27]"] ;
922 -> 923 ;
924 [label="x[1] <= 1.485\nentropy = 0.769\nsamples = 436\nvalue = [98, 338]"] ;
922 -> 924 ;
925 [label="entropy = 0.0\nsamples = 21\nvalue = [0, 21]"] ;
924 -> 925 ;
926 [label="x[3] <= 0.102\nentropy = 0.789\nsamples = 415\nvalue = [98, 317]"] ;
924 -> 926 ;
927 [label="x[3] <= 0.01\nentropy = 0.759\nsamples = 392\nvalue = [86, 306]"] ;
926 -> 927 ;
928 [label="x[5] <= 0.846\nentropy = 0.797\nsamples = 357\nvalue = [86, 271]"] ;
927 -> 928 ;
929 [label="x[4] <= -1.048\nentropy = 0.714\nsamples = 255\nvalue = [50, 205]"] ;
928 -> 929 ;
930 [label="x[5] <= 0.472\nentropy = 0.327\nsamples = 50\nvalue = [3, 47]"] ;
929 -> 930 ;
931 [label="x[2] <= -0.092\nentropy = 0.985\nsamples = 7\nvalue = [3, 4]"] ;
930 -> 931 ;
932 [label="x[5] <= 0.415\nentropy = 0.811\nsamples = 4\nvalue = [3, 1]"] ;
931 -> 932 ;
933 [label="entropy = 0.0\nsamples = 2\nvalue = [2, 0]"] ;
932 -> 933 ;
934 [label="x[9] <= -0.007\nentropy = 1.0\nsamples = 2\nvalue = [1, 1]"] ;
932 -> 934 ;
935 [label="entropy = 0.0\nsamples = 1\nvalue = [1, 0]"] ;
934 -> 935 ;
936 [label="entropy = 0.0\nsamples = 1\nvalue = [0, 1]"] ;
934 -> 936 ;
937 [label="entropy = 0.0\nsamples = 3\nvalue = [0, 3]"] ;
931 -> 937 ;
938 [label="entropy = 0.0\nsamples = 43\nvalue = [0, 43]"] ;
930 -> 938 ;
939 [label="x[4] <= -1.015\nentropy = 0.777\nsamples = 205\nvalue = [47, 158]"] ;
929 -> 939 ;
940 [label="x[9] <= -0.758\nentropy = 0.954\nsamples = 8\nvalue = [5, 3]"] ;
939 -> 940 ;
941 [label="entropy = 0.0\nsamples = 2\nvalue = [0, 2]"] ;
940 -> 941 ;
942 [label="x[0] <= 0.005\nentropy = 0.65\nsamples = 6\nvalue = [5, 1]"] ;
940 -> 942 ;
943 [label="x[3] <= -0.23\nentropy = 1.0\nsamples = 2\nvalue = [1, 1]"] ;
942 -> 943 ;
944 [label="entropy = 0.0\nsamples = 1\nvalue = [0, 1]"] ;
943 -> 944 ;
945 [label="entropy = 0.0\nsamples = 1\nvalue = [1, 0]"] ;
943 -> 945 ;
946 [label="entropy = 0.0\nsamples = 4\nvalue = [4, 0]"] ;
942 -> 946 ;
947 [label="x[9] <= -1.473\nentropy = 0.748\nsamples = 197\nvalue = [42, 155]"] ;
939 -> 947 ;
948 [label="x[4] <= -0.522\nentropy = 0.971\nsamples = 10\nvalue = [6, 4]"] ;
947 -> 948 ;
949 [label="x[5] <= 0.496\nentropy = 0.722\nsamples = 5\nvalue = [1, 4]"] ;
948 -> 949 ;
950 [label="entropy = 0.0\nsamples = 1\nvalue = [1, 0]"] ;
949 -> 950 ;
951 [label="entropy = 0.0\nsamples = 4\nvalue = [0, 4]"] ;
949 -> 951 ;
952 [label="entropy = 0.0\nsamples = 5\nvalue = [5, 0]"] ;
948 -> 952 ;
953 [label="x[9] <= 1.438\nentropy = 0.707\nsamples = 187\nvalue = [36, 151]"] ;
947 -> 953 ;
954 [label="x[2] <= 0.345\nentropy = 0.75\nsamples = 163\nvalue = [35, 128]"] ;
953 -> 954 ;
955 [label="x[8] <= -0.029\nentropy = 0.617\nsamples = 98\nvalue = [15, 83]"] ;
954 -> 955 ;
956 [label="x[9] <= -0.796\nentropy = 0.811\nsamples = 52\nvalue = [13, 39]"] ;
955 -> 956 ;
957 [label="entropy = 0.0\nsamples = 12\nvalue = [0, 12]"] ;
956 -> 957 ;
958 [label="x[5] <= 0.607\nentropy = 0.91\nsamples = 40\nvalue = [13, 27]"] ;
956 -> 958 ;
959 [label="x[9] <= 0.771\nentropy = 0.575\nsamples = 22\nvalue = [3, 19]"] ;
958 -> 959 ;
960 [label="entropy = 0.0\nsamples = 14\nvalue = [0, 14]"] ;
959 -> 960 ;
961 [label="x[3] <= -0.298\nentropy = 0.954\nsamples = 8\nvalue = [3, 5]"] ;
959 -> 961 ;
962 [label="entropy = 0.0\nsamples = 4\nvalue = [0, 4]"] ;
961 -> 962 ;
963 [label="x[3] <= -0.271\nentropy = 0.811\nsamples = 4\nvalue = [3, 1]"] ;
961 -> 963 ;
964 [label="entropy = 0.0\nsamples = 2\nvalue = [2, 0]"] ;
963 -> 964 ;
965 [label="x[3] <= -0.176\nentropy = 1.0\nsamples = 2\nvalue = [1, 1]"] ;
963 -> 965 ;
966 [label="entropy = 0.0\nsamples = 1\nvalue = [0, 1]"] ;
965 -> 966 ;
967 [label="entropy = 0.0\nsamples = 1\nvalue = [1, 0]"] ;
965 -> 967 ;
968 [label="x[0] <= 0.113\nentropy = 0.991\nsamples = 18\nvalue = [10, 8]"] ;
958 -> 968 ;
969 [label="x[0] <= -1.138\nentropy = 0.946\nsamples = 11\nvalue = [4, 7]"] ;
968 -> 969 ;
970 [label="entropy = 0.0\nsamples = 3\nvalue = [3, 0]"] ;
969 -> 970 ;
971 [label="x[4] <= 1.207\nentropy = 0.544\nsamples = 8\nvalue = [1, 7]"] ;
969 -> 971 ;
972 [label="entropy = 0.0\nsamples = 7\nvalue = [0, 7]"] ;
971 -> 972 ;
973 [label="entropy = 0.0\nsamples = 1\nvalue = [1, 0]"] ;
971 -> 973 ;
974 [label="x[7] <= -0.451\nentropy = 0.592\nsamples = 7\nvalue = [6, 1]"] ;
968 -> 974 ;
975 [label="entropy = 0.0\nsamples = 1\nvalue = [0, 1]"] ;
974 -> 975 ;
976 [label="entropy = 0.0\nsamples = 6\nvalue = [6, 0]"] ;
974 -> 976 ;
977 [label="x[9] <= 1.109\nentropy = 0.258\nsamples = 46\nvalue = [2, 44]"] ;
955 -> 977 ;
978 [label="x[0] <= -0.596\nentropy = 0.156\nsamples = 44\nvalue = [1, 43]"] ;
977 -> 978 ;
979 [label="x[4] <= -0.252\nentropy = 0.722\nsamples = 5\nvalue = [1, 4]"] ;
978 -> 979 ;
980 [label="entropy = 0.0\nsamples = 1\nvalue = [1, 0]"] ;
979 -> 980 ;
981 [label="entropy = 0.0\nsamples = 4\nvalue = [0, 4]"] ;
979 -> 981 ;
982 [label="entropy = 0.0\nsamples = 39\nvalue = [0, 39]"] ;
978 -> 982 ;
983 [label="x[7] <= -0.451\nentropy = 1.0\nsamples = 2\nvalue = [1, 1]"] ;
977 -> 983 ;
984 [label="entropy = 0.0\nsamples = 1\nvalue = [0, 1]"] ;
983 -> 984 ;
985 [label="entropy = 0.0\nsamples = 1\nvalue = [1, 0]"] ;
983 -> 985 ;
986 [label="x[8] <= -0.029\nentropy = 0.89\nsamples = 65\nvalue = [20, 45]"] ;
954 -> 986 ;
987 [label="x[5] <= 0.421\nentropy = 0.61\nsamples = 40\nvalue = [6, 34]"] ;
986 -> 987 ;
988 [label="entropy = 0.0\nsamples = 2\nvalue = [2, 0]"] ;
987 -> 988 ;
989 [label="x[9] <= -0.468\nentropy = 0.485\nsamples = 38\nvalue = [4, 34]"] ;
987 -> 989 ;
990 [label="entropy = 0.0\nsamples = 19\nvalue = [0, 19]"] ;
989 -> 990 ;
991 [label="x[9] <= -0.211\nentropy = 0.742\nsamples = 19\nvalue = [4, 15]"] ;
989 -> 991 ;
992 [label="entropy = 0.0\nsamples = 2\nvalue = [2, 0]"] ;
991 -> 992 ;
993 [label="x[5] <= 0.637\nentropy = 0.523\nsamples = 17\nvalue = [2, 15]"] ;
991 -> 993 ;
994 [label="entropy = 0.0\nsamples = 11\nvalue = [0, 11]"] ;
993 -> 994 ;
995 [label="x[4] <= -0.003\nentropy = 0.918\nsamples = 6\nvalue = [2, 4]"] ;
993 -> 995 ;
996 [label="entropy = 0.0\nsamples = 4\nvalue = [0, 4]"] ;
995 -> 996 ;
997 [label="entropy = 0.0\nsamples = 2\nvalue = [2, 0]"] ;
995 -> 997 ;
998 [label="x[4] <= 0.525\nentropy = 0.99\nsamples = 25\nvalue = [14, 11]"] ;
986 -> 998 ;
999 [label="x[0] <= 0.333\nentropy = 0.896\nsamples = 16\nvalue = [5, 11]"] ;
998 -> 999 ;
1000 [label="x[3] <= -0.449\nentropy = 0.439\nsamples = 11\nvalue = [1, 10]"] ;
999 -> 1000 ;
1001 [label="entropy = 0.0\nsamples = 1\nvalue = [1, 0]"] ;
1000 -> 1001 ;
1002 [label="entropy = 0.0\nsamples = 10\nvalue = [0, 10]"] ;
1000 -> 1002 ;
1003 [label="x[9] <= 1.203\nentropy = 0.722\nsamples = 5\nvalue = [4, 1]"] ;
999 -> 1003 ;
1004 [label="entropy = 0.0\nsamples = 4\nvalue = [4, 0]"] ;
1003 -> 1004 ;
1005 [label="entropy = 0.0\nsamples = 1\nvalue = [0, 1]"] ;
1003 -> 1005 ;
1006 [label="entropy = 0.0\nsamples = 9\nvalue = [9, 0]"] ;
998 -> 1006 ;
1007 [label="x[5] <= 0.454\nentropy = 0.25\nsamples = 24\nvalue = [1, 23]"] ;
953 -> 1007 ;
1008 [label="x[5] <= 0.441\nentropy = 0.592\nsamples = 7\nvalue = [1, 6]"] ;
1007 -> 1008 ;
1009 [label="entropy = 0.0\nsamples = 6\nvalue = [0, 6]"] ;
1008 -> 1009 ;
1010 [label="entropy = 0.0\nsamples = 1\nvalue = [1, 0]"] ;
1008 -> 1010 ;
1011 [label="entropy = 0.0\nsamples = 17\nvalue = [0, 17]"] ;
1007 -> 1011 ;
1012 [label="x[9] <= 1.393\nentropy = 0.937\nsamples = 102\nvalue = [36, 66]"] ;
928 -> 1012 ;
1013 [label="x[5] <= 0.858\nentropy = 0.879\nsamples = 94\nvalue = [28, 66]"] ;
1012 -> 1013 ;
1014 [label="entropy = 0.0\nsamples = 7\nvalue = [7, 0]"] ;
1013 -> 1014 ;
1015 [label="x[4] <= 0.026\nentropy = 0.797\nsamples = 87\nvalue = [21, 66]"] ;
1013 -> 1015 ;
1016 [label="x[0] <= 0.585\nentropy = 0.998\nsamples = 34\nvalue = [16, 18]"] ;
1015 -> 1016 ;
1017 [label="x[5] <= 1.048\nentropy = 0.918\nsamples = 27\nvalue = [9, 18]"] ;
1016 -> 1017 ;
1018 [label="x[5] <= 0.941\nentropy = 0.722\nsamples = 20\nvalue = [4, 16]"] ;
1017 -> 1018 ;
1019 [label="x[4] <= -1.059\nentropy = 0.971\nsamples = 10\nvalue = [4, 6]"] ;
1018 -> 1019 ;
1020 [label="entropy = 0.0\nsamples = 3\nvalue = [0, 3]"] ;
1019 -> 1020 ;
1021 [label="x[9] <= 1.065\nentropy = 0.985\nsamples = 7\nvalue = [4, 3]"] ;
1019 -> 1021 ;
1022 [label="x[5] <= 0.893\nentropy = 0.722\nsamples = 5\nvalue = [4, 1]"] ;
1021 -> 1022 ;
1023 [label="entropy = 0.0\nsamples = 1\nvalue = [0, 1]"] ;
1022 -> 1023 ;
1024 [label="entropy = 0.0\nsamples = 4\nvalue = [4, 0]"] ;
1022 -> 1024 ;
1025 [label="entropy = 0.0\nsamples = 2\nvalue = [0, 2]"] ;
1021 -> 1025 ;
1026 [label="entropy = 0.0\nsamples = 10\nvalue = [0, 10]"] ;
1018 -> 1026 ;
1027 [label="x[4] <= -0.92\nentropy = 0.863\nsamples = 7\nvalue = [5, 2]"] ;
1017 -> 1027 ;
1028 [label="x[0] <= 0.067\nentropy = 0.918\nsamples = 3\nvalue = [1, 2]"] ;
1027 -> 1028 ;
1029 [label="entropy = 0.0\nsamples = 2\nvalue = [0, 2]"] ;
1028 -> 1029 ;
1030 [label="entropy = 0.0\nsamples = 1\nvalue = [1, 0]"] ;
1028 -> 1030 ;
1031 [label="entropy = 0.0\nsamples = 4\nvalue = [4, 0]"] ;
1027 -> 1031 ;
1032 [label="entropy = 0.0\nsamples = 7\nvalue = [7, 0]"] ;
1016 -> 1032 ;
1033 [label="x[3] <= -0.183\nentropy = 0.451\nsamples = 53\nvalue = [5, 48]"] ;
1015 -> 1033 ;
1034 [label="entropy = 0.0\nsamples = 24\nvalue = [0, 24]"] ;
1033 -> 1034 ;
1035 [label="x[3] <= -0.182\nentropy = 0.663\nsamples = 29\nvalue = [5, 24]"] ;
1033 -> 1035 ;
1036 [label="entropy = 0.0\nsamples = 3\nvalue = [3, 0]"] ;
1035 -> 1036 ;
1037 [label="x[9] <= -1.619\nentropy = 0.391\nsamples = 26\nvalue = [2, 24]"] ;
1035 -> 1037 ;
1038 [label="x[5] <= 0.878\nentropy = 1.0\nsamples = 4\nvalue = [2, 2]"] ;
1037 -> 1038 ;
1039 [label="entropy = 0.0\nsamples = 1\nvalue = [1, 0]"] ;
1038 -> 1039 ;
1040 [label="x[2] <= -0.092\nentropy = 0.918\nsamples = 3\nvalue = [1, 2]"] ;
1038 -> 1040 ;
1041 [label="entropy = 0.0\nsamples = 2\nvalue = [0, 2]"] ;
1040 -> 1041 ;
1042 [label="entropy = 0.0\nsamples = 1\nvalue = [1, 0]"] ;
1040 -> 1042 ;
1043 [label="entropy = 0.0\nsamples = 22\nvalue = [0, 22]"] ;
1037 -> 1043 ;
1044 [label="entropy = 0.0\nsamples = 8\nvalue = [8, 0]"] ;
1012 -> 1044 ;
1045 [label="entropy = 0.0\nsamples = 35\nvalue = [0, 35]"] ;
927 -> 1045 ;
1046 [label="x[5] <= 0.467\nentropy = 0.999\nsamples = 23\nvalue = [12, 11]"] ;
926 -> 1046 ;
1047 [label="entropy = 0.0\nsamples = 4\nvalue = [0, 4]"] ;
1046 -> 1047 ;
1048 [label="x[4] <= -1.56\nentropy = 0.949\nsamples = 19\nvalue = [12, 7]"] ;
1046 -> 1048 ;
1049 [label="entropy = 0.0\nsamples = 2\nvalue = [0, 2]"] ;
1048 -> 1049 ;
1050 [label="x[0] <= -0.574\nentropy = 0.874\nsamples = 17\nvalue = [12, 5]"] ;
1048 -> 1050 ;
1051 [label="x[4] <= -0.349\nentropy = 0.991\nsamples = 9\nvalue = [4, 5]"] ;
1050 -> 1051 ;
1052 [label="entropy = 0.0\nsamples = 3\nvalue = [0, 3]"] ;
1051 -> 1052 ;
1053 [label="x[9] <= -0.958\nentropy = 0.918\nsamples = 6\nvalue = [4, 2]"] ;
1051 -> 1053 ;
1054 [label="entropy = 0.0\nsamples = 1\nvalue = [0, 1]"] ;
1053 -> 1054 ;
1055 [label="x[5] <= 0.75\nentropy = 0.722\nsamples = 5\nvalue = [4, 1]"] ;
1053 -> 1055 ;
1056 [label="entropy = 0.0\nsamples = 4\nvalue = [4, 0]"] ;
1055 -> 1056 ;
1057 [label="entropy = 0.0\nsamples = 1\nvalue = [0, 1]"] ;
1055 -> 1057 ;
1058 [label="entropy = 0.0\nsamples = 8\nvalue = [8, 0]"] ;
1050 -> 1058 ;
1059 [label="entropy = 0.0\nsamples = 46\nvalue = [0, 46]"] ;
903 -> 1059 ;
1060 [label="x[9] <= 1.109\nentropy = 0.964\nsamples = 36\nvalue = [22, 14]"] ;
902 -> 1060 ;
1061 [label="x[8] <= -0.029\nentropy = 1.0\nsamples = 26\nvalue = [13, 13]"] ;
1060 -> 1061 ;
1062 [label="x[4] <= -0.695\nentropy = 0.811\nsamples = 16\nvalue = [4, 12]"] ;
1061 -> 1062 ;
1063 [label="entropy = 0.0\nsamples = 7\nvalue = [0, 7]"] ;
1062 -> 1063 ;
1064 [label="x[5] <= 0.708\nentropy = 0.991\nsamples = 9\nvalue = [4, 5]"] ;
1062 -> 1064 ;
1065 [label="x[7] <= -0.451\nentropy = 0.811\nsamples = 4\nvalue = [3, 1]"] ;
1064 -> 1065 ;
1066 [label="entropy = 0.0\nsamples = 1\nvalue = [0, 1]"] ;
1065 -> 1066 ;
1067 [label="entropy = 0.0\nsamples = 3\nvalue = [3, 0]"] ;
1065 -> 1067 ;
1068 [label="x[0] <= 0.875\nentropy = 0.722\nsamples = 5\nvalue = [1, 4]"] ;
1064 -> 1068 ;
1069 [label="entropy = 0.0\nsamples = 4\nvalue = [0, 4]"] ;
1068 -> 1069 ;
1070 [label="entropy = 0.0\nsamples = 1\nvalue = [1, 0]"] ;
1068 -> 1070 ;
1071 [label="x[0] <= -1.387\nentropy = 0.469\nsamples = 10\nvalue = [9, 1]"] ;
1061 -> 1071 ;
1072 [label="entropy = 0.0\nsamples = 1\nvalue = [0, 1]"] ;
1071 -> 1072 ;
1073 [label="entropy = 0.0\nsamples = 9\nvalue = [9, 0]"] ;
1071 -> 1073 ;
1074 [label="x[5] <= 1.041\nentropy = 0.469\nsamples = 10\nvalue = [9, 1]"] ;
1060 -> 1074 ;
1075 [label="entropy = 0.0\nsamples = 9\nvalue = [9, 0]"] ;
1074 -> 1075 ;
1076 [label="entropy = 0.0\nsamples = 1\nvalue = [0, 1]"] ;
1074 -> 1076 ;
1077 [label="x[1] <= 1.184\nentropy = 0.869\nsamples = 124\nvalue = [88, 36]"] ;
787 -> 1077 ;
1078 [label="entropy = 0.0\nsamples = 5\nvalue = [0, 5]"] ;
1077 -> 1078 ;
1079 [label="x[5] <= 1.475\nentropy = 0.828\nsamples = 119\nvalue = [88, 31]"] ;
1077 -> 1079 ;
1080 [label="x[3] <= -1.213\nentropy = 0.904\nsamples = 97\nvalue = [66, 31]"] ;
1079 -> 1080 ;
1081 [label="entropy = 0.0\nsamples = 12\nvalue = [12, 0]"] ;
1080 -> 1081 ;
1082 [label="x[9] <= -1.287\nentropy = 0.947\nsamples = 85\nvalue = [54, 31]"] ;
1080 -> 1082 ;
1083 [label="entropy = 0.0\nsamples = 9\nvalue = [9, 0]"] ;
1082 -> 1083 ;
1084 [label="x[9] <= -0.146\nentropy = 0.975\nsamples = 76\nvalue = [45, 31]"] ;
1082 -> 1084 ;
1085 [label="x[8] <= -0.029\nentropy = 0.993\nsamples = 40\nvalue = [18, 22]"] ;
1084 -> 1085 ;
1086 [label="x[3] <= -0.687\nentropy = 0.684\nsamples = 22\nvalue = [4, 18]"] ;
1085 -> 1086 ;
1087 [label="entropy = 0.0\nsamples = 10\nvalue = [0, 10]"] ;
1086 -> 1087 ;
1088 [label="x[2] <= -0.092\nentropy = 0.918\nsamples = 12\nvalue = [4, 8]"] ;
1086 -> 1088 ;
1089 [label="entropy = 0.0\nsamples = 5\nvalue = [0, 5]"] ;
1088 -> 1089 ;
1090 [label="x[0] <= 0.414\nentropy = 0.985\nsamples = 7\nvalue = [4, 3]"] ;
1088 -> 1090 ;
1091 [label="x[3] <= -0.564\nentropy = 0.811\nsamples = 4\nvalue = [1, 3]"] ;
1090 -> 1091 ;
1092 [label="entropy = 0.0\nsamples = 1\nvalue = [1, 0]"] ;
1091 -> 1092 ;
1093 [label="entropy = 0.0\nsamples = 3\nvalue = [0, 3]"] ;
1091 -> 1093 ;
1094 [label="entropy = 0.0\nsamples = 3\nvalue = [3, 0]"] ;
1090 -> 1094 ;
1095 [label="x[0] <= 0.942\nentropy = 0.764\nsamples = 18\nvalue = [14, 4]"] ;
1085 -> 1095 ;
1096 [label="entropy = 0.0\nsamples = 11\nvalue = [11, 0]"] ;
1095 -> 1096 ;
1097 [label="x[7] <= -0.451\nentropy = 0.985\nsamples = 7\nvalue = [3, 4]"] ;
1095 -> 1097 ;
1098 [label="entropy = 0.0\nsamples = 4\nvalue = [0, 4]"] ;
1097 -> 1098 ;
1099 [label="entropy = 0.0\nsamples = 3\nvalue = [3, 0]"] ;
1097 -> 1099 ;
1100 [label="x[9] <= 1.254\nentropy = 0.811\nsamples = 36\nvalue = [27, 9]"] ;
1084 -> 1100 ;
1101 [label="x[4] <= 1.037\nentropy = 0.516\nsamples = 26\nvalue = [23, 3]"] ;
1100 -> 1101 ;
1102 [label="x[3] <= -1.166\nentropy = 0.258\nsamples = 23\nvalue = [22, 1]"] ;
1101 -> 1102 ;
1103 [label="entropy = 0.0\nsamples = 1\nvalue = [0, 1]"] ;
1102 -> 1103 ;
1104 [label="entropy = 0.0\nsamples = 22\nvalue = [22, 0]"] ;
1102 -> 1104 ;
1105 [label="x[0] <= 0.007\nentropy = 0.918\nsamples = 3\nvalue = [1, 2]"] ;
1101 -> 1105 ;
1106 [label="entropy = 0.0\nsamples = 1\nvalue = [1, 0]"] ;
1105 -> 1106 ;
1107 [label="entropy = 0.0\nsamples = 2\nvalue = [0, 2]"] ;
1105 -> 1107 ;
1108 [label="x[4] <= 0.342\nentropy = 0.971\nsamples = 10\nvalue = [4, 6]"] ;
1100 -> 1108 ;
1109 [label="x[5] <= 1.152\nentropy = 0.811\nsamples = 8\nvalue = [2, 6]"] ;
1108 -> 1109 ;
1110 [label="x[9] <= 1.525\nentropy = 0.918\nsamples = 3\nvalue = [2, 1]"] ;
1109 -> 1110 ;
1111 [label="entropy = 0.0\nsamples = 1\nvalue = [0, 1]"] ;
1110 -> 1111 ;
1112 [label="entropy = 0.0\nsamples = 2\nvalue = [2, 0]"] ;
1110 -> 1112 ;
1113 [label="entropy = 0.0\nsamples = 5\nvalue = [0, 5]"] ;
1109 -> 1113 ;
1114 [label="entropy = 0.0\nsamples = 2\nvalue = [2, 0]"] ;
1108 -> 1114 ;
1115 [label="entropy = 0.0\nsamples = 22\nvalue = [22, 0]"] ;
1079 -> 1115 ;
1116 [label="x[5] <= -1.222\nentropy = 0.5\nsamples = 2651\nvalue = [2359, 292]"] ;
2 -> 1116 ;
1117 [label="x[2] <= 0.535\nentropy = 0.297\nsamples = 1468\nvalue = [1391, 77]"] ;
1116 -> 1117 ;
1118 [label="x[3] <= -0.373\nentropy = 0.46\nsamples = 680\nvalue = [614, 66]"] ;
1117 -> 1118 ;
1119 [label="x[9] <= -1.372\nentropy = 0.242\nsamples = 426\nvalue = [409, 17]"] ;
1118 -> 1119 ;
1120 [label="x[1] <= -0.716\nentropy = 0.657\nsamples = 53\nvalue = [44, 9]"] ;
1119 -> 1120 ;
1121 [label="entropy = 0.0\nsamples = 27\nvalue = [27, 0]"] ;
1120 -> 1121 ;
1122 [label="x[1] <= 0.272\nentropy = 0.931\nsamples = 26\nvalue = [17, 9]"] ;
1120 -> 1122 ;
1123 [label="entropy = 0.0\nsamples = 5\nvalue = [0, 5]"] ;
1122 -> 1123 ;
1124 [label="x[0] <= 0.166\nentropy = 0.702\nsamples = 21\nvalue = [17, 4]"] ;
1122 -> 1124 ;
1125 [label="x[0] <= -0.497\nentropy = 0.918\nsamples = 12\nvalue = [8, 4]"] ;
1124 -> 1125 ;
1126 [label="entropy = 0.0\nsamples = 4\nvalue = [4, 0]"] ;
1125 -> 1126 ;
1127 [label="x[0] <= -0.2\nentropy = 1.0\nsamples = 8\nvalue = [4, 4]"] ;
1125 -> 1127 ;
1128 [label="entropy = 0.0\nsamples = 2\nvalue = [0, 2]"] ;
1127 -> 1128 ;
1129 [label="x[0] <= 0.093\nentropy = 0.918\nsamples = 6\nvalue = [4, 2]"] ;
1127 -> 1129 ;
1130 [label="x[9] <= -1.535\nentropy = 0.722\nsamples = 5\nvalue = [4, 1]"] ;
1129 -> 1130 ;
1131 [label="entropy = 0.0\nsamples = 3\nvalue = [3, 0]"] ;
1130 -> 1131 ;
1132 [label="x[0] <= -0.176\nentropy = 1.0\nsamples = 2\nvalue = [1, 1]"] ;
1130 -> 1132 ;
1133 [label="entropy = 0.0\nsamples = 1\nvalue = [1, 0]"] ;
1132 -> 1133 ;
1134 [label="entropy = 0.0\nsamples = 1\nvalue = [0, 1]"] ;
1132 -> 1134 ;
1135 [label="entropy = 0.0\nsamples = 1\nvalue = [0, 1]"] ;
1129 -> 1135 ;
1136 [label="entropy = 0.0\nsamples = 9\nvalue = [9, 0]"] ;
1124 -> 1136 ;
1137 [label="x[4] <= -0.868\nentropy = 0.149\nsamples = 373\nvalue = [365, 8]"] ;
1119 -> 1137 ;
1138 [label="x[9] <= 0.004\nentropy = 0.422\nsamples = 70\nvalue = [64, 6]"] ;
1137 -> 1138 ;
1139 [label="x[9] <= -0.131\nentropy = 0.696\nsamples = 32\nvalue = [26, 6]"] ;
1138 -> 1139 ;
1140 [label="x[4] <= -1.477\nentropy = 0.235\nsamples = 26\nvalue = [25, 1]"] ;
1139 -> 1140 ;
1141 [label="x[4] <= -1.65\nentropy = 0.918\nsamples = 3\nvalue = [2, 1]"] ;
1140 -> 1141 ;
1142 [label="entropy = 0.0\nsamples = 2\nvalue = [2, 0]"] ;
1141 -> 1142 ;
1143 [label="entropy = 0.0\nsamples = 1\nvalue = [0, 1]"] ;
1141 -> 1143 ;
1144 [label="entropy = 0.0\nsamples = 23\nvalue = [23, 0]"] ;
1140 -> 1144 ;
1145 [label="x[0] <= -1.082\nentropy = 0.65\nsamples = 6\nvalue = [1, 5]"] ;
1139 -> 1145 ;
1146 [label="entropy = 0.0\nsamples = 1\nvalue = [1, 0]"] ;
1145 -> 1146 ;
1147 [label="entropy = 0.0\nsamples = 5\nvalue = [0, 5]"] ;
1145 -> 1147 ;
1148 [label="entropy = 0.0\nsamples = 38\nvalue = [38, 0]"] ;
1138 -> 1148 ;
1149 [label="x[0] <= -1.946\nentropy = 0.057\nsamples = 303\nvalue = [301, 2]"] ;
1137 -> 1149 ;
1150 [label="x[0] <= -2.013\nentropy = 0.592\nsamples = 7\nvalue = [6, 1]"] ;
1149 -> 1150 ;
1151 [label="entropy = 0.0\nsamples = 6\nvalue = [6, 0]"] ;
1150 -> 1151 ;
1152 [label="entropy = 0.0\nsamples = 1\nvalue = [0, 1]"] ;
1150 -> 1152 ;
1153 [label="x[4] <= -0.176\nentropy = 0.033\nsamples = 296\nvalue = [295, 1]"] ;
1149 -> 1153 ;
1154 [label="x[9] <= 0.758\nentropy = 0.1\nsamples = 77\nvalue = [76, 1]"] ;
1153 -> 1154 ;
1155 [label="entropy = 0.0\nsamples = 55\nvalue = [55, 0]"] ;
1154 -> 1155 ;
1156 [label="x[9] <= 0.809\nentropy = 0.267\nsamples = 22\nvalue = [21, 1]"] ;
1154 -> 1156 ;
1157 [label="entropy = 0.0\nsamples = 1\nvalue = [0, 1]"] ;
1156 -> 1157 ;
1158 [label="entropy = 0.0\nsamples = 21\nvalue = [21, 0]"] ;
1156 -> 1158 ;
1159 [label="entropy = 0.0\nsamples = 219\nvalue = [219, 0]"] ;
1153 -> 1159 ;
1160 [label="x[9] <= -0.575\nentropy = 0.708\nsamples = 254\nvalue = [205, 49]"] ;
1118 -> 1160 ;
1161 [label="x[0] <= -0.5\nentropy = 0.937\nsamples = 99\nvalue = [64, 35]"] ;
1160 -> 1161 ;
1162 [label="entropy = 0.0\nsamples = 23\nvalue = [23, 0]"] ;
1161 -> 1162 ;
1163 [label="x[0] <= 0.96\nentropy = 0.995\nsamples = 76\nvalue = [41, 35]"] ;
1161 -> 1163 ;
1164 [label="x[9] <= -1.57\nentropy = 0.994\nsamples = 64\nvalue = [29, 35]"] ;
1163 -> 1164 ;
1165 [label="entropy = 0.0\nsamples = 7\nvalue = [7, 0]"] ;
1164 -> 1165 ;
1166 [label="x[4] <= -0.472\nentropy = 0.962\nsamples = 57\nvalue = [22, 35]"] ;
1164 -> 1166 ;
1167 [label="x[9] <= -1.091\nentropy = 0.702\nsamples = 21\nvalue = [4, 17]"] ;
1166 -> 1167 ;
1168 [label="x[0] <= 0.429\nentropy = 0.971\nsamples = 5\nvalue = [3, 2]"] ;
1167 -> 1168 ;
1169 [label="entropy = 0.0\nsamples = 3\nvalue = [3, 0]"] ;
1168 -> 1169 ;
1170 [label="entropy = 0.0\nsamples = 2\nvalue = [0, 2]"] ;
1168 -> 1170 ;
1171 [label="x[8] <= -0.029\nentropy = 0.337\nsamples = 16\nvalue = [1, 15]"] ;
1167 -> 1171 ;
1172 [label="entropy = 0.0\nsamples = 14\nvalue = [0, 14]"] ;
1171 -> 1172 ;
1173 [label="x[4] <= -0.948\nentropy = 1.0\nsamples = 2\nvalue = [1, 1]"] ;
1171 -> 1173 ;
1174 [label="entropy = 0.0\nsamples = 1\nvalue = [0, 1]"] ;
1173 -> 1174 ;
1175 [label="entropy = 0.0\nsamples = 1\nvalue = [1, 0]"] ;
1173 -> 1175 ;
1176 [label="x[4] <= 1.415\nentropy = 1.0\nsamples = 36\nvalue = [18, 18]"] ;
1166 -> 1176 ;
1177 [label="x[9] <= -1.485\nentropy = 0.811\nsamples = 20\nvalue = [15, 5]"] ;
1176 -> 1177 ;
1178 [label="x[1] <= 0.232\nentropy = 0.722\nsamples = 5\nvalue = [1, 4]"] ;
1177 -> 1178 ;
1179 [label="entropy = 0.0\nsamples = 4\nvalue = [0, 4]"] ;
1178 -> 1179 ;
1180 [label="entropy = 0.0\nsamples = 1\nvalue = [1, 0]"] ;
1178 -> 1180 ;
1181 [label="x[4] <= 1.061\nentropy = 0.353\nsamples = 15\nvalue = [14, 1]"] ;
1177 -> 1181 ;
1182 [label="entropy = 0.0\nsamples = 11\nvalue = [11, 0]"] ;
1181 -> 1182 ;
1183 [label="x[4] <= 1.234\nentropy = 0.811\nsamples = 4\nvalue = [3, 1]"] ;
1181 -> 1183 ;
1184 [label="entropy = 0.0\nsamples = 1\nvalue = [0, 1]"] ;
1183 -> 1184 ;
1185 [label="entropy = 0.0\nsamples = 3\nvalue = [3, 0]"] ;
1183 -> 1185 ;
1186 [label="x[3] <= 0.188\nentropy = 0.696\nsamples = 16\nvalue = [3, 13]"] ;
1176 -> 1186 ;
1187 [label="x[3] <= -0.181\nentropy = 0.371\nsamples = 14\nvalue = [1, 13]"] ;
1186 -> 1187 ;
1188 [label="x[9] <= -1.293\nentropy = 0.918\nsamples = 3\nvalue = [1, 2]"] ;
1187 -> 1188 ;
1189 [label="entropy = 0.0\nsamples = 2\nvalue = [0, 2]"] ;
1188 -> 1189 ;
1190 [label="entropy = 0.0\nsamples = 1\nvalue = [1, 0]"] ;
1188 -> 1190 ;
1191 [label="entropy = 0.0\nsamples = 11\nvalue = [0, 11]"] ;
1187 -> 1191 ;
1192 [label="entropy = 0.0\nsamples = 2\nvalue = [2, 0]"] ;
1186 -> 1192 ;
1193 [label="entropy = 0.0\nsamples = 12\nvalue = [12, 0]"] ;
1163 -> 1193 ;
1194 [label="x[0] <= 0.911\nentropy = 0.438\nsamples = 155\nvalue = [141, 14]"] ;
1160 -> 1194 ;
1195 [label="x[9] <= -0.14\nentropy = 0.286\nsamples = 120\nvalue = [114, 6]"] ;
1194 -> 1195 ;
1196 [label="x[4] <= -0.522\nentropy = 0.634\nsamples = 25\nvalue = [21, 4]"] ;
1195 -> 1196 ;
1197 [label="x[4] <= -1.039\nentropy = 0.89\nsamples = 13\nvalue = [9, 4]"] ;
1196 -> 1197 ;
1198 [label="entropy = 0.0\nsamples = 8\nvalue = [8, 0]"] ;
1197 -> 1198 ;
1199 [label="x[0] <= -0.738\nentropy = 0.722\nsamples = 5\nvalue = [1, 4]"] ;
1197 -> 1199 ;
1200 [label="entropy = 0.0\nsamples = 1\nvalue = [1, 0]"] ;
1199 -> 1200 ;
1201 [label="entropy = 0.0\nsamples = 4\nvalue = [0, 4]"] ;
1199 -> 1201 ;
1202 [label="entropy = 0.0\nsamples = 12\nvalue = [12, 0]"] ;
1196 -> 1202 ;
1203 [label="x[4] <= 0.515\nentropy = 0.147\nsamples = 95\nvalue = [93, 2]"] ;
1195 -> 1203 ;
1204 [label="entropy = 0.0\nsamples = 64\nvalue = [64, 0]"] ;
1203 -> 1204 ;
1205 [label="x[0] <= -0.3\nentropy = 0.345\nsamples = 31\nvalue = [29, 2]"] ;
1203 -> 1205 ;
1206 [label="x[0] <= -0.393\nentropy = 0.592\nsamples = 14\nvalue = [12, 2]"] ;
1205 -> 1206 ;
1207 [label="x[4] <= 1.392\nentropy = 0.391\nsamples = 13\nvalue = [12, 1]"] ;
1206 -> 1207 ;
1208 [label="entropy = 0.0\nsamples = 10\nvalue = [10, 0]"] ;
1207 -> 1208 ;
1209 [label="x[8] <= -0.029\nentropy = 0.918\nsamples = 3\nvalue = [2, 1]"] ;
1207 -> 1209 ;
1210 [label="entropy = 0.0\nsamples = 1\nvalue = [0, 1]"] ;
1209 -> 1210 ;
1211 [label="entropy = 0.0\nsamples = 2\nvalue = [2, 0]"] ;
1209 -> 1211 ;
1212 [label="entropy = 0.0\nsamples = 1\nvalue = [0, 1]"] ;
1206 -> 1212 ;
1213 [label="entropy = 0.0\nsamples = 17\nvalue = [17, 0]"] ;
1205 -> 1213 ;
1214 [label="x[9] <= 0.295\nentropy = 0.776\nsamples = 35\nvalue = [27, 8]"] ;
1194 -> 1214 ;
1215 [label="entropy = 0.0\nsamples = 15\nvalue = [15, 0]"] ;
1214 -> 1215 ;
1216 [label="x[4] <= 0.792\nentropy = 0.971\nsamples = 20\nvalue = [12, 8]"] ;
1214 -> 1216 ;
